<?xml version="1.0"?>
<MethodSetup Method="BDT::BDTG">
  <GeneralInfo>
    <Info name="TMVA Release" value="4.2.0 [262656]"/>
    <Info name="ROOT Release" value="5.34/18 [336402]"/>
    <Info name="Creator" value="cvernier"/>
    <Info name="Date" value="Tue Jul  7 18:53:11 2015"/>
    <Info name="Host" value="Linux cmsdev02.cern.ch 2.6.32-431.23.3.el6.x86_64 #1 SMP Wed Jul 30 09:43:11 CEST 2014 x86_64 x86_64 x86_64 GNU/Linux"/>
    <Info name="Dir" value="/afs/cern.ch/work/c/cvernier/testRegression/CMSSW_7_2_2_patch2/src/hlt_pileup/PuIdTreeProducer/test_HiggsTagging/codeTraining_june/HiggsTagger"/>
    <Info name="Training events" value="131312"/>
    <Info name="TrainingTime" value="1.33226507e+02"/>
    <Info name="AnalysisType" value="Classification"/>
  </GeneralInfo>
  <Options>
    <Option name="V" modified="Yes">False</Option>
    <Option name="VerbosityLevel" modified="No">Default</Option>
    <Option name="VarTransform" modified="No">None</Option>
    <Option name="H" modified="Yes">False</Option>
    <Option name="CreateMVAPdfs" modified="No">False</Option>
    <Option name="IgnoreNegWeightsInTraining" modified="No">False</Option>
    <Option name="NTrees" modified="Yes">500</Option>
    <Option name="MaxDepth" modified="Yes">4</Option>
    <Option name="MinNodeSize" modified="Yes">2.5%</Option>
    <Option name="nCuts" modified="Yes">20</Option>
    <Option name="BoostType" modified="Yes">Grad</Option>
    <Option name="AdaBoostR2Loss" modified="No">quadratic</Option>
    <Option name="UseBaggedBoost" modified="No">False</Option>
    <Option name="Shrinkage" modified="Yes">2.000000e-01</Option>
    <Option name="AdaBoostBeta" modified="No">5.000000e-01</Option>
    <Option name="UseRandomisedTrees" modified="No">False</Option>
    <Option name="UseNvars" modified="No">3</Option>
    <Option name="UsePoissonNvars" modified="No">True</Option>
    <Option name="BaggedSampleFraction" modified="No">6.000000e-01</Option>
    <Option name="UseYesNoLeaf" modified="No">True</Option>
    <Option name="NegWeightTreatment" modified="No">ignorenegweightsintraining</Option>
    <Option name="Css" modified="No">1.000000e+00</Option>
    <Option name="Cts_sb" modified="No">1.000000e+00</Option>
    <Option name="Ctb_ss" modified="No">1.000000e+00</Option>
    <Option name="Cbb" modified="No">1.000000e+00</Option>
    <Option name="NodePurityLimit" modified="No">5.000000e-01</Option>
    <Option name="SeparationType" modified="Yes">misclassificationerror</Option>
    <Option name="DoBoostMonitor" modified="No">False</Option>
    <Option name="UseFisherCuts" modified="No">False</Option>
    <Option name="MinLinCorrForFisher" modified="No">8.000000e-01</Option>
    <Option name="UseExclusiveVars" modified="No">False</Option>
    <Option name="DoPreselection" modified="No">False</Option>
    <Option name="SigToBkgFraction" modified="No">1.000000e+00</Option>
    <Option name="PruneMethod" modified="Yes">costcomplexity</Option>
    <Option name="PruneStrength" modified="Yes">2.000000e+00</Option>
    <Option name="PruningValFraction" modified="No">5.000000e-01</Option>
    <Option name="nEventsMin" modified="No">0</Option>
    <Option name="UseBaggedGrad" modified="No">False</Option>
    <Option name="GradBaggingFraction" modified="No">6.000000e-01</Option>
    <Option name="UseNTrainEvents" modified="No">0</Option>
    <Option name="NNodesMax" modified="No">0</Option>
  </Options>
  <Variables NVar="7">
    <Variable VarIndex="0" Expression="z_ratio" Label="z_ratio" Title="z_ratio" Unit="" Internal="z_ratio" Type="F" Min="-3.00000000e+00" Max="2.25754791e+02"/>
    <Variable VarIndex="1" Expression="tau_dot" Label="tau_dot" Title="tau_dot" Unit="" Internal="tau_dot" Type="F" Min="-3.00000000e+00" Max="1.00000000e+00"/>
    <Variable VarIndex="2" Expression="SV_mass_0" Label="SV_mass_0" Title="SV_mass_0" Unit="" Internal="SV_mass_0" Type="F" Min="-3.00000000e+00" Max="6.49948883e+00"/>
    <Variable VarIndex="3" Expression="SV_vtx_EnergyRatio_0" Label="SV_vtx_EnergyRatio_0" Title="SV_vtx_EnergyRatio_0" Unit="" Internal="SV_vtx_EnergyRatio_0" Type="F" Min="-3.00000000e+00" Max="1.00000000e+02"/>
    <Variable VarIndex="4" Expression="SV_vtx_EnergyRatio_1" Label="SV_vtx_EnergyRatio_1" Title="SV_vtx_EnergyRatio_1" Unit="" Internal="SV_vtx_EnergyRatio_1" Type="F" Min="-3.00000000e+00" Max="1.00000000e+02"/>
    <Variable VarIndex="5" Expression="trackSip3dSig_3" Label="trackSip3dSig_3" Title="trackSip3dSig_3" Unit="" Internal="trackSip3dSig_3" Type="F" Min="-2.04159256e+02" Max="9.90000000e+01"/>
    <Variable VarIndex="6" Expression="jetNTracksEtaRel" Label="jetNTracksEtaRel" Title="jetNTracksEtaRel" Unit="" Internal="jetNTracksEtaRel" Type="I" Min="0.00000000e+00" Max="3.20000000e+01"/>
  </Variables>
  <Spectators NSpec="5">
    <Spectator SpecIndex="0" Expression="massPruned" Label="massPruned" Title="massPruned" Unit="" Internal="massPruned" Type="F" Min="7.00012665e+01" Max="1.99993286e+02"/>
    <Spectator SpecIndex="1" Expression="flavour" Label="flavour" Title="flavour" Unit="" Internal="flavour" Type="F" Min="-5.00000000e+00" Max="5.00000000e+00"/>
    <Spectator SpecIndex="2" Expression="nbHadrons" Label="nbHadrons" Title="nbHadrons" Unit="" Internal="nbHadrons" Type="F" Min="1.00000000e+00" Max="6.00000000e+00"/>
    <Spectator SpecIndex="3" Expression="ptPruned" Label="ptPruned" Title="ptPruned" Unit="" Internal="ptPruned" Type="F" Min="3.00005402e+02" Max="2.02741040e+03"/>
    <Spectator SpecIndex="4" Expression="etaPruned" Label="etaPruned" Title="etaPruned" Unit="" Internal="etaPruned" Type="F" Min="-2.51751971e+00" Max="2.50667524e+00"/>
  </Spectators>
  <Classes NClass="2">
    <Class Name="Signal" Index="0"/>
    <Class Name="Background" Index="1"/>
  </Classes>
  <Transformations NTransformations="0"/>
  <MVAPdfs/>
  <Weights NTrees="500" AnalysisType="1">
    <BinaryTree type="DecisionTree" boostWeight="1.0000000000000000e+00" itree="0">
      <Node pos="s" depth="0" NCoef="0" IVar="0" Cut="7.8930854797363281e+00" cType="1" res="7.9033215518928279e-14" rms="5.0000000000000000e-01" purity="5.0000000000000000e-01" nType="0">
        <Node pos="l" depth="1" NCoef="0" IVar="1" Cut="-2.8095238208770752e+00" cType="1" res="-9.1090664267539978e-02" rms="4.9163246154785156e-01" purity="4.0890935063362122e-01" nType="0">
          <Node pos="l" depth="2" NCoef="0" IVar="6" Cut="5.2380955219268799e-01" cType="1" res="0.0000000000000000e+00" rms="0.0000000000000000e+00" purity="1.0000000000000000e+00" nType="0">
            <Node pos="l" depth="3" NCoef="0" IVar="-1" Cut="0.0000000000000000e+00" cType="1" res="2.2187156975269318e-01" rms="0.0000000000000000e+00" purity="1.0000000000000000e+00" nType="-99"/>
            <Node pos="r" depth="3" NCoef="0" IVar="-1" Cut="0.0000000000000000e+00" cType="1" res="2.2187156975269318e-01" rms="0.0000000000000000e+00" purity="1.0000000000000000e+00" nType="-99"/>
          </Node>
          <Node pos="r" depth="2" NCoef="0" IVar="1" Cut="6.6666668653488159e-01" cType="1" res="-1.4186145365238190e-01" rms="4.7945314645767212e-01" purity="3.5813853144645691e-01" nType="0">
            <Node pos="l" depth="3" NCoef="0" IVar="-1" Cut="0.0000000000000000e+00" cType="1" res="-1.7812842130661011e-01" rms="0.0000000000000000e+00" purity="0.0000000000000000e+00" nType="-99"/>
            <Node pos="r" depth="3" NCoef="0" IVar="5" Cut="1.4096425771713257e+00" cType="1" res="-1.1309105902910233e-01" rms="4.8704251646995544e-01" purity="3.8690894842147827e-01" nType="0">
              <Node pos="l" depth="4" NCoef="0" IVar="-1" Cut="0.0000000000000000e+00" cType="1" res="-4.5105311437509954e-04" rms="4.9999868869781494e-01" purity="4.9885842204093933e-01" nType="-99"/>
              <Node pos="r" depth="4" NCoef="0" IVar="-1" Cut="0.0000000000000000e+00" cType="1" res="-6.3975162804126740e-02" rms="4.7099688649177551e-01" purity="3.3218482136726379e-01" nType="-99"/>
            </Node>
          </Node>
        </Node>
        <Node pos="r" depth="1" NCoef="0" IVar="2" Cut="3.8426296710968018e+00" cType="1" res="1.7499703168869019e-01" rms="4.6837595105171204e-01" purity="6.7499709129333496e-01" nType="0">
          <Node pos="l" depth="2" NCoef="0" IVar="0" Cut="1.8267543792724609e+01" cType="1" res="1.9041514396667480e-01" rms="4.6232247352600098e-01" purity="6.9041508436203003e-01" nType="0">
            <Node pos="l" depth="3" NCoef="0" IVar="0" Cut="1.0363103866577148e+01" cType="1" res="1.6599979996681213e-01" rms="4.7163975238800049e-01" purity="6.6599982976913452e-01" nType="0">
              <Node pos="l" depth="4" NCoef="0" IVar="-1" Cut="0.0000000000000000e+00" cType="1" res="3.8655664771795273e-02" rms="4.9074429273605347e-01" purity="5.9576034545898438e-01" nType="-99"/>
              <Node pos="r" depth="4" NCoef="0" IVar="-1" Cut="0.0000000000000000e+00" cType="1" res="8.3818405866622925e-02" rms="4.5707818865776062e-01" purity="7.0268082618713379e-01" nType="-99"/>
            </Node>
            <Node pos="r" depth="3" NCoef="0" IVar="5" Cut="9.3595343828201294e-01" cType="1" res="2.3907005786895752e-01" rms="4.3914178013801575e-01" purity="7.3907005786895752e-01" nType="0">
              <Node pos="l" depth="4" NCoef="0" IVar="-1" Cut="0.0000000000000000e+00" cType="1" res="1.2835575640201569e-01" rms="3.9755412936210632e-01" purity="8.0323380231857300e-01" nType="-99"/>
              <Node pos="r" depth="4" NCoef="0" IVar="-1" Cut="0.0000000000000000e+00" cType="1" res="8.6577326059341431e-02" rms="4.5420181751251221e-01" purity="7.0904713869094849e-01" nType="-99"/>
            </Node>
          </Node>
          <Node pos="r" depth="2" NCoef="0" IVar="-1" Cut="0.0000000000000000e+00" cType="1" res="3.3109406940639019e-03" rms="4.9993005394935608e-01" purity="5.0836223363876343e-01" nType="-99"/>
        </Node>
      </Node>
    </BinaryTree>
    <BinaryTree type="DecisionTree" boostWeight="1.0000000000000000e+00" itree="1">
      <Node pos="s" depth="0" NCoef="0" IVar="0" Cut="7.8930854797363281e+00" cType="1" res="-2.0107151940464973e-03" rms="4.8273435235023499e-01" purity="5.0000000000000000e-01" nType="0">
        <Node pos="l" depth="1" NCoef="0" IVar="1" Cut="-2.8095238208770752e+00" cType="1" res="-7.5336627662181854e-02" rms="4.7494775056838989e-01" purity="4.0890935063362122e-01" nType="0">
          <Node pos="l" depth="2" NCoef="0" IVar="6" Cut="5.2380955219268799e-01" cType="1" res="1.8211553990840912e-01" rms="0.0000000000000000e+00" purity="1.0000000000000000e+00" nType="-99"/>
          <Node pos="r" depth="2" NCoef="0" IVar="1" Cut="6.6666668653488159e-01" cType="1" res="-1.1537893861532211e-01" rms="4.7400447726249695e-01" purity="3.5813853144645691e-01" nType="0">
            <Node pos="l" depth="3" NCoef="0" IVar="-1" Cut="0.0000000000000000e+00" cType="1" res="-1.5143524110317230e-01" rms="1.8250121414098430e-08" purity="0.0000000000000000e+00" nType="-99"/>
            <Node pos="r" depth="3" NCoef="0" IVar="5" Cut="1.4096425771713257e+00" cType="1" res="-9.1561205685138702e-02" rms="4.8487171530723572e-01" purity="3.8690894842147827e-01" nType="0">
              <Node pos="l" depth="4" NCoef="0" IVar="-1" Cut="0.0000000000000000e+00" cType="1" res="-3.6194265703670681e-04" rms="4.9999871850013733e-01" purity="4.9885842204093933e-01" nType="-99"/>
              <Node pos="r" depth="4" NCoef="0" IVar="-1" Cut="0.0000000000000000e+00" cType="1" res="-5.2009627223014832e-02" rms="4.7099691629409790e-01" purity="3.3218482136726379e-01" nType="-99"/>
            </Node>
          </Node>
        </Node>
        <Node pos="r" depth="1" NCoef="0" IVar="2" Cut="3.8426296710968018e+00" cType="1" res="1.3885791599750519e-01" rms="4.6603137254714966e-01" purity="6.7499709129333496e-01" nType="0">
          <Node pos="l" depth="2" NCoef="0" IVar="5" Cut="1.9673013687133789e+00" cType="1" res="1.5108539164066315e-01" rms="4.6085801720619202e-01" purity="6.9041508436203003e-01" nType="0">
            <Node pos="l" depth="3" NCoef="0" IVar="0" Cut="1.7720899581909180e+01" cType="1" res="1.7114377021789551e-01" rms="4.5148560404777527e-01" purity="7.1192950010299683e-01" nType="0">
              <Node pos="l" depth="4" NCoef="0" IVar="-1" Cut="0.0000000000000000e+00" cType="1" res="6.4100787043571472e-02" rms="4.6217069029808044e-01" purity="6.8872529268264771e-01" nType="-99"/>
              <Node pos="r" depth="4" NCoef="0" IVar="-1" Cut="0.0000000000000000e+00" cType="1" res="8.3948947489261627e-02" rms="4.3171551823616028e-01" purity="7.5058150291442871e-01" nType="-99"/>
            </Node>
            <Node pos="r" depth="3" NCoef="0" IVar="0" Cut="1.8267898559570312e+01" cType="1" res="1.1304445564746857e-01" rms="4.7581163048744202e-01" purity="6.4961290359497070e-01" nType="0">
              <Node pos="l" depth="4" NCoef="0" IVar="-1" Cut="0.0000000000000000e+00" cType="1" res="3.5659294575452805e-02" rms="4.8382437229156494e-01" purity="6.2122070789337158e-01" nType="-99"/>
              <Node pos="r" depth="4" NCoef="0" IVar="-1" Cut="0.0000000000000000e+00" cType="1" res="7.3116250336170197e-02" rms="4.4995054602622986e-01" purity="7.1804702281951904e-01" nType="-99"/>
            </Node>
          </Node>
          <Node pos="r" depth="2" NCoef="0" IVar="-1" Cut="0.0000000000000000e+00" cType="1" res="2.6555063668638468e-03" rms="4.9993005394935608e-01" purity="5.0836223363876343e-01" nType="-99"/>
        </Node>
      </Node>
    </BinaryTree>
    <BinaryTree type="DecisionTree" boostWeight="1.0000000000000000e+00" itree="2">
      <Node pos="s" depth="0" NCoef="0" IVar="0" Cut="7.8930854797363281e+00" cType="1" res="-3.1217013020068407e-03" rms="4.7160381078720093e-01" purity="5.0000000000000000e-01" nType="0">
        <Node pos="l" depth="1" NCoef="0" IVar="1" Cut="-2.8095238208770752e+00" cType="1" res="-6.2190860509872437e-02" rms="4.6425306797027588e-01" purity="4.0890935063362122e-01" nType="0">
          <Node pos="l" depth="2" NCoef="0" IVar="6" Cut="5.2380955219268799e-01" cType="1" res="1.6038653254508972e-01" rms="1.3436890355933429e-07" purity="1.0000000000000000e+00" nType="-99"/>
          <Node pos="r" depth="2" NCoef="0" IVar="1" Cut="6.6666668653488159e-01" cType="1" res="-9.4015501439571381e-02" rms="4.7036087512969971e-01" purity="3.5813853144645691e-01" nType="0">
            <Node pos="l" depth="3" NCoef="0" IVar="-1" Cut="0.0000000000000000e+00" cType="1" res="-1.3513736426830292e-01" rms="6.8690958698880422e-08" purity="0.0000000000000000e+00" nType="-99"/>
            <Node pos="r" depth="3" NCoef="0" IVar="6" Cut="1.0571428298950195e+01" cType="1" res="-7.4179634451866150e-02" rms="4.8344686627388000e-01" purity="3.8690894842147827e-01" nType="0">
              <Node pos="l" depth="4" NCoef="0" IVar="-1" Cut="0.0000000000000000e+00" cType="1" res="-1.7889415845274925e-02" rms="4.8957556486129761e-01" purity="4.1784447431564331e-01" nType="-99"/>
              <Node pos="r" depth="4" NCoef="0" IVar="-1" Cut="0.0000000000000000e+00" cType="1" res="-6.4303331077098846e-02" rms="4.4987523555755615e-01" purity="2.8448051214218140e-01" nType="-99"/>
            </Node>
          </Node>
        </Node>
        <Node pos="r" depth="1" NCoef="0" IVar="2" Cut="3.5474462509155273e+00" cType="1" res="1.1035785079002380e-01" rms="4.6480676531791687e-01" purity="6.7499709129333496e-01" nType="0">
          <Node pos="l" depth="2" NCoef="0" IVar="5" Cut="1.9673013687133789e+00" cType="1" res="1.2179522961378098e-01" rms="4.5949116349220276e-01" purity="6.9224679470062256e-01" nType="0">
            <Node pos="l" depth="3" NCoef="0" IVar="0" Cut="1.7721097946166992e+01" cType="1" res="1.3694776594638824e-01" rms="4.5081657171249390e-01" purity="7.1301436424255371e-01" nType="0">
              <Node pos="l" depth="4" NCoef="0" IVar="-1" Cut="0.0000000000000000e+00" cType="1" res="5.2290823310613632e-02" rms="4.6151253581047058e-01" purity="6.9032180309295654e-01" nType="-99"/>
              <Node pos="r" depth="4" NCoef="0" IVar="-1" Cut="0.0000000000000000e+00" cType="1" res="6.8245768547058105e-02" rms="4.3171253800392151e-01" purity="7.5064796209335327e-01" nType="-99"/>
            </Node>
            <Node pos="r" depth="3" NCoef="0" IVar="0" Cut="1.8267898559570312e+01" cType="1" res="9.2719189822673798e-02" rms="4.7434028983116150e-01" purity="6.5239596366882324e-01" nType="0">
              <Node pos="l" depth="4" NCoef="0" IVar="-1" Cut="0.0000000000000000e+00" cType="1" res="2.9995642602443695e-02" rms="4.8298504948616028e-01" purity="6.2458610534667969e-01" nType="-99"/>
              <Node pos="r" depth="4" NCoef="0" IVar="-1" Cut="0.0000000000000000e+00" cType="1" res="5.9667196124792099e-02" rms="4.4933977723121643e-01" purity="7.1930295228958130e-01" nType="-99"/>
            </Node>
          </Node>
          <Node pos="r" depth="2" NCoef="0" IVar="-1" Cut="0.0000000000000000e+00" cType="1" res="7.1596391499042511e-03" rms="4.9614250659942627e-01" purity="5.3555005788803101e-01" nType="-99"/>
        </Node>
      </Node>
    </BinaryTree>
    <BinaryTree type="DecisionTree" boostWeight="1.0000000000000000e+00" itree="3">
      <Node pos="s" depth="0" NCoef="0" IVar="3" Cut="1.9047619104385376e+00" cType="1" res="-3.6567277275025845e-03" rms="4.6433624625205994e-01" purity="5.0000000000000000e-01" nType="0">
        <Node pos="l" depth="1" NCoef="0" IVar="4" Cut="-1.3963397741317749e+00" cType="1" res="-2.6036094874143600e-02" rms="4.6261903643608093e-01" purity="4.7417804598808289e-01" nType="0">
          <Node pos="l" depth="2" NCoef="0" IVar="1" Cut="-2.8095238208770752e+00" cType="1" res="3.9035221934318542e-01" rms="1.0793890804052353e-01" purity="1.0000000000000000e+00" nType="0">
            <Node pos="l" depth="3" NCoef="0" IVar="6" Cut="5.2380955219268799e-01" cType="1" res="0.0000000000000000e+00" rms="0.0000000000000000e+00" purity="1.0000000000000000e+00" nType="0">
              <Node pos="l" depth="4" NCoef="0" IVar="-1" Cut="0.0000000000000000e+00" cType="1" res="1.4681665599346161e-01" rms="1.0716281906297809e-07" purity="1.0000000000000000e+00" nType="-99"/>
              <Node pos="r" depth="4" NCoef="0" IVar="-1" Cut="0.0000000000000000e+00" cType="1" res="1.4681665599346161e-01" rms="1.1381965947521167e-07" purity="1.0000000000000000e+00" nType="-99"/>
            </Node>
            <Node pos="r" depth="3" NCoef="0" IVar="0" Cut="8.4870100021362305e+00" cType="1" res="4.4708901643753052e-01" rms="6.8405352532863617e-02" purity="1.0000000000000000e+00" nType="0">
              <Node pos="l" depth="4" NCoef="0" IVar="-1" Cut="0.0000000000000000e+00" cType="1" res="2.3585036396980286e-01" rms="4.0550775825977325e-02" purity="1.0000000000000000e+00" nType="-99"/>
              <Node pos="r" depth="4" NCoef="0" IVar="-1" Cut="0.0000000000000000e+00" cType="1" res="1.8575790524482727e-01" rms="2.5916146114468575e-02" purity="1.0000000000000000e+00" nType="-99"/>
            </Node>
          </Node>
          <Node pos="r" depth="2" NCoef="0" IVar="3" Cut="3.6276936531066895e-01" cType="1" res="-1.3248208165168762e-01" rms="4.5836198329925537e-01" purity="3.3975630998611450e-01" nType="0">
            <Node pos="l" depth="3" NCoef="0" IVar="3" Cut="2.0729468762874603e-01" cType="1" res="-2.9413500428199768e-01" rms="3.5276919603347778e-01" purity="1.5222734212875366e-01" nType="0">
              <Node pos="l" depth="4" NCoef="0" IVar="-1" Cut="0.0000000000000000e+00" cType="1" res="-1.3260421156883240e-01" rms="2.7489742636680603e-01" purity="8.2495898008346558e-02" nType="-99"/>
              <Node pos="r" depth="4" NCoef="0" IVar="-1" Cut="0.0000000000000000e+00" cType="1" res="-7.7214077115058899e-02" rms="4.4267222285270691e-01" purity="2.7372145652770996e-01" nType="-99"/>
            </Node>
            <Node pos="r" depth="3" NCoef="0" IVar="6" Cut="4.8571429252624512e+00" cType="1" res="2.6244822889566422e-02" rms="4.9329718947410583e-01" purity="5.2389091253280640e-01" nType="0">
              <Node pos="l" depth="4" NCoef="0" IVar="-1" Cut="0.0000000000000000e+00" cType="1" res="-9.0279825031757355e-02" rms="4.8241037130355835e-01" purity="3.0549135804176331e-01" nType="-99"/>
              <Node pos="r" depth="4" NCoef="0" IVar="-1" Cut="0.0000000000000000e+00" cType="1" res="2.5507304817438126e-02" rms="4.8393920063972473e-01" purity="5.5452460050582886e-01" nType="-99"/>
            </Node>
          </Node>
        </Node>
        <Node pos="r" depth="1" NCoef="0" IVar="2" Cut="1.7817308902740479e+00" cType="1" res="2.3072855174541473e-01" rms="4.1484630107879639e-01" purity="7.7044034004211426e-01" nType="0">
          <Node pos="l" depth="2" NCoef="0" IVar="-1" Cut="0.0000000000000000e+00" cType="1" res="1.0629051923751831e-01" rms="4.0168285369873047e-01" purity="7.9246038198471069e-01" nType="-99"/>
          <Node pos="r" depth="2" NCoef="0" IVar="0" Cut="1.0181673049926758e+01" cType="1" res="2.2326566278934479e-01" rms="4.2227342724800110e-01" purity="7.5739604234695435e-01" nType="0">
            <Node pos="l" depth="3" NCoef="0" IVar="-1" Cut="0.0000000000000000e+00" cType="1" res="8.9844636619091034e-02" rms="4.6351686120033264e-01" purity="6.8327641487121582e-01" nType="-99"/>
            <Node pos="r" depth="3" NCoef="0" IVar="-1" Cut="0.0000000000000000e+00" cType="1" res="1.0196510702371597e-01" rms="3.8242650032043457e-01" purity="8.2223123311996460e-01" nType="-99"/>
          </Node>
        </Node>
      </Node>
    </BinaryTree>
    <BinaryTree type="DecisionTree" boostWeight="1.0000000000000000e+00" itree="4">
      <Node pos="s" depth="0" NCoef="0" IVar="3" Cut="1.9047619104385376e+00" cType="1" res="-6.3276411965489388e-03" rms="4.3600142002105713e-01" purity="5.0000000000000000e-01" nType="0">
        <Node pos="l" depth="1" NCoef="0" IVar="4" Cut="-1.3963397741317749e+00" cType="1" res="-2.4386649951338768e-02" rms="4.3368729948997498e-01" purity="4.7417804598808289e-01" nType="0">
          <Node pos="l" depth="2" NCoef="0" IVar="1" Cut="-2.8095238208770752e+00" cType="1" res="3.0692821741104126e-01" rms="8.4043562412261963e-02" purity="1.0000000000000000e+00" nType="0">
            <Node pos="l" depth="3" NCoef="0" IVar="6" Cut="5.2380955219268799e-01" cType="1" res="1.3768675923347473e-01" rms="0.0000000000000000e+00" purity="1.0000000000000000e+00" nType="-99"/>
            <Node pos="r" depth="3" NCoef="0" IVar="0" Cut="8.4870100021362305e+00" cType="1" res="3.5071292519569397e-01" rms="5.4405428469181061e-02" purity="1.0000000000000000e+00" nType="0">
              <Node pos="l" depth="4" NCoef="0" IVar="-1" Cut="0.0000000000000000e+00" cType="1" res="1.8931445479393005e-01" rms="3.8757674396038055e-02" purity="1.0000000000000000e+00" nType="-99"/>
              <Node pos="r" depth="4" NCoef="0" IVar="-1" Cut="0.0000000000000000e+00" cType="1" res="1.6264908015727997e-01" rms="2.3525033146142960e-02" purity="1.0000000000000000e+00" nType="-99"/>
            </Node>
          </Node>
          <Node pos="r" depth="2" NCoef="0" IVar="3" Cut="4.5346170663833618e-01" cType="1" res="-1.0908436030149460e-01" rms="4.4623520970344543e-01" purity="3.3975630998611450e-01" nType="0">
            <Node pos="l" depth="3" NCoef="0" IVar="6" Cut="3.0476191043853760e+00" cType="1" res="-2.2282828390598297e-01" rms="3.7371549010276794e-01" purity="1.8410463631153107e-01" nType="0">
              <Node pos="l" depth="4" NCoef="0" IVar="-1" Cut="0.0000000000000000e+00" cType="1" res="-1.4803649485111237e-01" rms="1.1779414117336273e-01" purity="0.0000000000000000e+00" nType="-99"/>
              <Node pos="r" depth="4" NCoef="0" IVar="-1" Cut="0.0000000000000000e+00" cType="1" res="-7.2646655142307281e-02" rms="4.0940394997596741e-01" purity="2.3460909724235535e-01" nType="-99"/>
            </Node>
            <Node pos="r" depth="3" NCoef="0" IVar="6" Cut="4.8571429252624512e+00" cType="1" res="4.6597942709922791e-02" rms="4.8843413591384888e-01" purity="5.5279821157455444e-01" nType="0">
              <Node pos="l" depth="4" NCoef="0" IVar="-1" Cut="0.0000000000000000e+00" cType="1" res="-6.7551903426647186e-02" rms="4.9069294333457947e-01" purity="3.2192865014076233e-01" nType="-99"/>
              <Node pos="r" depth="4" NCoef="0" IVar="-1" Cut="0.0000000000000000e+00" cType="1" res="3.1522262841463089e-02" rms="4.8036411404609680e-01" purity="5.8423542976379395e-01" nType="-99"/>
            </Node>
          </Node>
        </Node>
        <Node pos="r" depth="1" NCoef="0" IVar="2" Cut="1.7817308902740479e+00" cType="1" res="1.8280933797359467e-01" rms="4.1471320390701294e-01" purity="7.7044034004211426e-01" nType="0">
          <Node pos="l" depth="2" NCoef="0" IVar="-1" Cut="0.0000000000000000e+00" cType="1" res="8.6731486022472382e-02" rms="4.0157574415206909e-01" purity="7.9246038198471069e-01" nType="-99"/>
          <Node pos="r" depth="2" NCoef="0" IVar="0" Cut="1.0181673049926758e+01" cType="1" res="1.7697487771511078e-01" rms="4.2219451069831848e-01" purity="7.5739604234695435e-01" nType="0">
            <Node pos="l" depth="3" NCoef="0" IVar="-1" Cut="0.0000000000000000e+00" cType="1" res="7.1026228368282318e-02" rms="4.6348255872726440e-01" purity="6.8327641487121582e-01" nType="-99"/>
            <Node pos="r" depth="3" NCoef="0" IVar="-1" Cut="0.0000000000000000e+00" cType="1" res="8.4625326097011566e-02" rms="3.8235676288604736e-01" purity="8.2223123311996460e-01" nType="-99"/>
          </Node>
        </Node>
      </Node>
    </BinaryTree>
    <BinaryTree type="DecisionTree" boostWeight="1.0000000000000000e+00" itree="5">
      <Node pos="s" depth="0" NCoef="0" IVar="3" Cut="1.9047619104385376e+00" cType="1" res="-7.6376115903258324e-03" rms="4.1640394926071167e-01" purity="5.0000000000000000e-01" nType="0">
        <Node pos="l" depth="1" NCoef="0" IVar="4" Cut="-1.3963397741317749e+00" cType="1" res="-2.2215722128748894e-02" rms="4.1363903880119324e-01" purity="4.7417804598808289e-01" nType="0">
          <Node pos="l" depth="2" NCoef="0" IVar="1" Cut="-2.8095238208770752e+00" cType="1" res="2.4291397631168365e-01" rms="6.6448517143726349e-02" purity="1.0000000000000000e+00" nType="0">
            <Node pos="l" depth="3" NCoef="0" IVar="6" Cut="5.2380955219268799e-01" cType="1" res="1.3124749064445496e-01" rms="6.6847945845438517e-08" purity="1.0000000000000000e+00" nType="-99"/>
            <Node pos="r" depth="3" NCoef="0" IVar="0" Cut="8.4870100021362305e+00" cType="1" res="2.7718120813369751e-01" rms="4.4007524847984314e-02" purity="1.0000000000000000e+00" nType="0">
              <Node pos="l" depth="4" NCoef="0" IVar="-1" Cut="0.0000000000000000e+00" cType="1" res="1.6482788324356079e-01" rms="3.4667238593101501e-02" purity="1.0000000000000000e+00" nType="-99"/>
              <Node pos="r" depth="4" NCoef="0" IVar="-1" Cut="0.0000000000000000e+00" cType="1" res="1.4835172891616821e-01" rms="2.0573763176798820e-02" purity="1.0000000000000000e+00" nType="-99"/>
            </Node>
          </Node>
          <Node pos="r" depth="2" NCoef="0" IVar="3" Cut="2.7207702398300171e-01" cType="1" res="-8.9993774890899658e-02" rms="4.3720036745071411e-01" purity="3.3975630998611450e-01" nType="0">
            <Node pos="l" depth="3" NCoef="0" IVar="3" Cut="1.4250957965850830e-01" cType="1" res="-2.2571760416030884e-01" rms="3.1128317117691040e-01" purity="1.1513516306877136e-01" nType="0">
              <Node pos="l" depth="4" NCoef="0" IVar="-1" Cut="0.0000000000000000e+00" cType="1" res="-1.1400818824768066e-01" rms="2.1754020452499390e-01" purity="4.8560492694377899e-02" nType="-99"/>
              <Node pos="r" depth="4" NCoef="0" IVar="-1" Cut="0.0000000000000000e+00" cType="1" res="-7.1503907442092896e-02" rms="3.9670667052268982e-01" purity="2.0157487690448761e-01" nType="-99"/>
            </Node>
            <Node pos="r" depth="3" NCoef="0" IVar="1" Cut="9.5238095521926880e-01" cType="1" res="-8.0964015796780586e-04" rms="4.8271691799163818e-01" purity="4.8735490441322327e-01" nType="0">
              <Node pos="l" depth="4" NCoef="0" IVar="-1" Cut="0.0000000000000000e+00" cType="1" res="6.3484728336334229e-02" rms="4.5907145738601685e-01" purity="6.5611034631729126e-01" nType="-99"/>
              <Node pos="r" depth="4" NCoef="0" IVar="-1" Cut="0.0000000000000000e+00" cType="1" res="-1.5231405384838581e-02" rms="4.8116469383239746e-01" purity="4.4589406251907349e-01" nType="-99"/>
            </Node>
          </Node>
        </Node>
        <Node pos="r" depth="1" NCoef="0" IVar="0" Cut="8.3063850402832031e+00" cType="1" res="1.4504295587539673e-01" rms="4.1459745168685913e-01" purity="7.7044034004211426e-01" nType="0">
          <Node pos="l" depth="2" NCoef="0" IVar="-1" Cut="0.0000000000000000e+00" cType="1" res="6.4269237220287323e-02" rms="4.5773458480834961e-01" purity="6.9481438398361206e-01" nType="-99"/>
          <Node pos="r" depth="2" NCoef="0" IVar="6" Cut="5.4285712242126465e+00" cType="1" res="1.3936690986156464e-01" rms="3.8392597436904907e-01" purity="8.1949782371520996e-01" nType="0">
            <Node pos="l" depth="3" NCoef="0" IVar="-1" Cut="0.0000000000000000e+00" cType="1" res="6.3405014574527740e-02" rms="3.8667172193527222e-01" purity="8.1632232666015625e-01" nType="-99"/>
            <Node pos="r" depth="3" NCoef="0" IVar="-1" Cut="0.0000000000000000e+00" cType="1" res="7.3099672794342041e-02" rms="3.8087797164916992e-01" purity="8.2258725166320801e-01" nType="-99"/>
          </Node>
        </Node>
      </Node>
    </BinaryTree>
    <BinaryTree type="DecisionTree" boostWeight="1.0000000000000000e+00" itree="6">
      <Node pos="s" depth="0" NCoef="0" IVar="3" Cut="1.9047619104385376e+00" cType="1" res="-8.1375604495406151e-03" rms="4.0310481190681458e-01" purity="5.0000000000000000e-01" nType="0">
        <Node pos="l" depth="1" NCoef="0" IVar="4" Cut="-1.3963397741317749e+00" cType="1" res="-1.9907807931303978e-02" rms="4.0001454949378967e-01" purity="4.7417804598808289e-01" nType="0">
          <Node pos="l" depth="2" NCoef="0" IVar="1" Cut="-2.8095238208770752e+00" cType="1" res="1.9294305145740509e-01" rms="5.2883259952068329e-02" purity="1.0000000000000000e+00" nType="0">
            <Node pos="l" depth="3" NCoef="0" IVar="6" Cut="5.2380955219268799e-01" cType="1" res="1.2655813992023468e-01" rms="5.8071528030723130e-08" purity="1.0000000000000000e+00" nType="-99"/>
            <Node pos="r" depth="3" NCoef="0" IVar="0" Cut="8.4870100021362305e+00" cType="1" res="2.1995989978313446e-01" rms="3.5722184926271439e-02" purity="1.0000000000000000e+00" nType="0">
              <Node pos="l" depth="4" NCoef="0" IVar="-1" Cut="0.0000000000000000e+00" cType="1" res="1.4981187880039215e-01" rms="2.9947903007268906e-02" purity="1.0000000000000000e+00" nType="-99"/>
              <Node pos="r" depth="4" NCoef="0" IVar="-1" Cut="0.0000000000000000e+00" cType="1" res="1.3878314197063446e-01" rms="1.7575247213244438e-02" purity="1.0000000000000000e+00" nType="-99"/>
            </Node>
          </Node>
          <Node pos="r" depth="2" NCoef="0" IVar="3" Cut="5.4415404796600342e-01" cType="1" res="-7.4321240186691284e-02" rms="4.3088221549987793e-01" purity="3.3975630998611450e-01" nType="0">
            <Node pos="l" depth="3" NCoef="0" IVar="6" Cut="3.0476191043853760e+00" cType="1" res="-1.4618915319442749e-01" rms="3.8199636340141296e-01" purity="2.1052594482898712e-01" nType="0">
              <Node pos="l" depth="4" NCoef="0" IVar="-1" Cut="0.0000000000000000e+00" cType="1" res="-1.3021859526634216e-01" rms="1.1250942200422287e-01" purity="0.0000000000000000e+00" nType="-99"/>
              <Node pos="r" depth="4" NCoef="0" IVar="-1" Cut="0.0000000000000000e+00" cType="1" res="-4.8178523778915405e-02" rms="4.1731333732604980e-01" purity="2.6244470477104187e-01" nType="-99"/>
            </Node>
            <Node pos="r" depth="3" NCoef="0" IVar="6" Cut="4.8571429252624512e+00" cType="1" res="5.7454638183116913e-02" rms="4.8133942484855652e-01" purity="5.7671111822128296e-01" nType="0">
              <Node pos="l" depth="4" NCoef="0" IVar="-1" Cut="0.0000000000000000e+00" cType="1" res="-4.9187198281288147e-02" rms="4.9300739169120789e-01" purity="3.3629891276359558e-01" nType="-99"/>
              <Node pos="r" depth="4" NCoef="0" IVar="-1" Cut="0.0000000000000000e+00" cType="1" res="3.4130457788705826e-02" rms="4.7437530755996704e-01" purity="6.0909360647201538e-01" nType="-99"/>
            </Node>
          </Node>
        </Node>
        <Node pos="r" depth="1" NCoef="0" IVar="6" Cut="8.8571424484252930e+00" cType="1" res="1.1513548344373703e-01" rms="4.1453510522842407e-01" purity="7.7044034004211426e-01" nType="0">
          <Node pos="l" depth="2" NCoef="0" IVar="6" Cut="5.1428570747375488e+00" cType="1" res="1.2033041566610336e-01" rms="4.0479132533073425e-01" purity="7.8756749629974365e-01" nType="0">
            <Node pos="l" depth="3" NCoef="0" IVar="-1" Cut="0.0000000000000000e+00" cType="1" res="5.4752364754676819e-02" rms="4.0169045329093933e-01" purity="7.9463589191436768e-01" nType="-99"/>
            <Node pos="r" depth="3" NCoef="0" IVar="-1" Cut="0.0000000000000000e+00" cType="1" res="6.2592610716819763e-02" rms="4.0831586718559265e-01" purity="7.7860110998153687e-01" nType="-99"/>
          </Node>
          <Node pos="r" depth="2" NCoef="0" IVar="-1" Cut="0.0000000000000000e+00" cType="1" res="4.6852439641952515e-02" rms="4.3675741553306580e-01" purity="7.2938340902328491e-01" nType="-99"/>
        </Node>
      </Node>
    </BinaryTree>
    <BinaryTree type="DecisionTree" boostWeight="1.0000000000000000e+00" itree="7">
      <Node pos="s" depth="0" NCoef="0" IVar="2" Cut="2.8806359767913818e+00" cType="1" res="-8.1851221621036530e-03" rms="3.9327102899551392e-01" purity="5.0000000000000000e-01" nType="0">
        <Node pos="l" depth="1" NCoef="0" IVar="3" Cut="1.9047619104385376e+00" cType="1" res="1.0806028731167316e-02" rms="3.8498809933662415e-01" purity="5.2934759855270386e-01" nType="0">
          <Node pos="l" depth="2" NCoef="0" IVar="4" Cut="-1.3963397741317749e+00" cType="1" res="3.3148757647722960e-03" rms="3.8188853859901428e-01" purity="5.0668072700500488e-01" nType="0">
            <Node pos="l" depth="3" NCoef="0" IVar="1" Cut="-2.8095238208770752e+00" cType="1" res="1.4805865287780762e-01" rms="4.0479302406311035e-02" purity="1.0000000000000000e+00" nType="0">
              <Node pos="l" depth="4" NCoef="0" IVar="-1" Cut="0.0000000000000000e+00" cType="1" res="1.2306462973356247e-01" rms="0.0000000000000000e+00" purity="1.0000000000000000e+00" nType="-99"/>
              <Node pos="r" depth="4" NCoef="0" IVar="-1" Cut="0.0000000000000000e+00" cType="1" res="1.3450421392917633e-01" rms="2.7278505265712738e-02" purity="1.0000000000000000e+00" nType="-99"/>
            </Node>
            <Node pos="r" depth="3" NCoef="0" IVar="6" Cut="3.0476191043853760e+00" cType="1" res="-4.0487505495548248e-02" rms="4.2569708824157715e-01" purity="3.5739231109619141e-01" nType="0">
              <Node pos="l" depth="4" NCoef="0" IVar="-1" Cut="0.0000000000000000e+00" cType="1" res="-1.2898504734039307e-01" rms="1.2445533275604248e-01" purity="0.0000000000000000e+00" nType="-99"/>
              <Node pos="r" depth="4" NCoef="0" IVar="-1" Cut="0.0000000000000000e+00" cType="1" res="2.0273295231163502e-03" rms="4.5408451557159424e-01" purity="4.3577879667282104e-01" nType="-99"/>
            </Node>
          </Node>
          <Node pos="r" depth="2" NCoef="0" IVar="2" Cut="1.7819503545761108e+00" cType="1" res="9.4012610614299774e-02" rms="4.0874323248863220e-01" purity="7.8111624717712402e-01" nType="0">
            <Node pos="l" depth="3" NCoef="0" IVar="-1" Cut="0.0000000000000000e+00" cType="1" res="5.0534434616565704e-02" rms="4.0134567022323608e-01" purity="7.9225152730941772e-01" nType="-99"/>
            <Node pos="r" depth="3" NCoef="0" IVar="-1" Cut="0.0000000000000000e+00" cType="1" res="4.3647695332765579e-02" rms="4.1614186763763428e-01" purity="7.6964277029037476e-01" nType="-99"/>
          </Node>
        </Node>
        <Node pos="r" depth="1" NCoef="0" IVar="0" Cut="9.1843910217285156e+00" cType="1" res="-7.3138862848281860e-02" rms="4.1383221745491028e-01" purity="3.9962503314018250e-01" nType="0">
          <Node pos="l" depth="2" NCoef="0" IVar="6" Cut="9.1428575515747070e+00" cType="1" res="-1.0273795574903488e-01" rms="4.0245535969734192e-01" purity="3.2510814070701599e-01" nType="0">
            <Node pos="l" depth="3" NCoef="0" IVar="5" Cut="1.6518526077270508e+00" cType="1" res="-6.7024819552898407e-02" rms="4.0275743603706360e-01" purity="3.9067131280899048e-01" nType="0">
              <Node pos="l" depth="4" NCoef="0" IVar="-1" Cut="0.0000000000000000e+00" cType="1" res="-1.5639124438166618e-02" rms="4.0837103128433228e-01" purity="4.6514812111854553e-01" nType="-99"/>
              <Node pos="r" depth="4" NCoef="0" IVar="-1" Cut="0.0000000000000000e+00" cType="1" res="-4.0638413280248642e-02" rms="3.9606094360351562e-01" purity="3.2870194315910339e-01" nType="-99"/>
            </Node>
            <Node pos="r" depth="3" NCoef="0" IVar="6" Cut="1.3142857551574707e+01" cType="1" res="-1.5203313529491425e-01" rms="3.9679223299026489e-01" purity="2.3461069166660309e-01" nType="0">
              <Node pos="l" depth="4" NCoef="0" IVar="-1" Cut="0.0000000000000000e+00" cType="1" res="-5.1699265837669373e-02" rms="4.1217496991157532e-01" purity="2.6721489429473877e-01" nType="-99"/>
              <Node pos="r" depth="4" NCoef="0" IVar="-1" Cut="0.0000000000000000e+00" cType="1" res="-7.9571694135665894e-02" rms="3.6686637997627258e-01" purity="1.8256326019763947e-01" nType="-99"/>
            </Node>
          </Node>
          <Node pos="r" depth="2" NCoef="0" IVar="2" Cut="3.7414910793304443e+00" cType="1" res="1.4621242880821228e-02" rms="4.3415731191635132e-01" purity="6.2056463956832886e-01" nType="0">
            <Node pos="l" depth="3" NCoef="0" IVar="-1" Cut="0.0000000000000000e+00" cType="1" res="1.4154681935906410e-02" rms="4.1466650366783142e-01" purity="6.8851882219314575e-01" nType="-99"/>
            <Node pos="r" depth="3" NCoef="0" IVar="-1" Cut="0.0000000000000000e+00" cType="1" res="-1.2449701316654682e-03" rms="4.5605573058128357e-01" purity="5.3818386793136597e-01" nType="-99"/>
          </Node>
        </Node>
      </Node>
    </BinaryTree>
    <BinaryTree type="DecisionTree" boostWeight="1.0000000000000000e+00" itree="8">
      <Node pos="s" depth="0" NCoef="0" IVar="6" Cut="1.3714285850524902e+01" cType="1" res="-7.6506612822413445e-03" rms="3.8746532797813416e-01" purity="5.0000000000000000e-01" nType="0">
        <Node pos="l" depth="1" NCoef="0" IVar="3" Cut="1.9047619104385376e+00" cType="1" res="5.9932441217824817e-04" rms="3.8384243845939636e-01" purity="5.1581746339797974e-01" nType="0">
          <Node pos="l" depth="2" NCoef="0" IVar="4" Cut="-2.2361884117126465e+00" cType="1" res="-7.4277878738939762e-03" rms="3.8015440106391907e-01" purity="4.9018898606300354e-01" nType="0">
            <Node pos="l" depth="3" NCoef="0" IVar="1" Cut="-2.8095238208770752e+00" cType="1" res="1.2757682800292969e-01" rms="4.2225934565067291e-02" purity="1.0000000000000000e+00" nType="0">
              <Node pos="l" depth="4" NCoef="0" IVar="-1" Cut="0.0000000000000000e+00" cType="1" res="1.2041836977005005e-01" rms="0.0000000000000000e+00" purity="1.0000000000000000e+00" nType="-99"/>
              <Node pos="r" depth="4" NCoef="0" IVar="-1" Cut="0.0000000000000000e+00" cType="1" res="1.3123399019241333e-01" rms="3.4480635076761246e-02" purity="1.0000000000000000e+00" nType="-99"/>
            </Node>
            <Node pos="r" depth="3" NCoef="0" IVar="3" Cut="3.6276936531066895e-01" cType="1" res="-4.5483972877264023e-02" rms="4.2209765315055847e-01" purity="3.4647935628890991e-01" nType="0">
              <Node pos="l" depth="4" NCoef="0" IVar="-1" Cut="0.0000000000000000e+00" cType="1" res="-6.0652535408735275e-02" rms="3.4142386913299561e-01" purity="1.5505832433700562e-01" nType="-99"/>
              <Node pos="r" depth="4" NCoef="0" IVar="-1" Cut="0.0000000000000000e+00" cType="1" res="1.5357349999248981e-02" rms="4.7671285271644592e-01" purity="5.4109007120132446e-01" nType="-99"/>
            </Node>
          </Node>
          <Node pos="r" depth="2" NCoef="0" IVar="6" Cut="5.1428570747375488e+00" cType="1" res="8.2364179193973541e-02" rms="4.1072383522987366e-01" purity="7.7687108516693115e-01" nType="0">
            <Node pos="l" depth="3" NCoef="0" IVar="-1" Cut="0.0000000000000000e+00" cType="1" res="3.9020944386720657e-02" rms="4.0139245986938477e-01" purity="7.9463589191436768e-01" nType="-99"/>
            <Node pos="r" depth="3" NCoef="0" IVar="-1" Cut="0.0000000000000000e+00" cType="1" res="4.3691638857126236e-02" rms="4.1707235574722290e-01" purity="7.6429313421249390e-01" nType="-99"/>
          </Node>
        </Node>
        <Node pos="r" depth="1" NCoef="0" IVar="2" Cut="3.2546555995941162e+00" cType="1" res="-1.1406714469194412e-01" rms="4.1709887981414795e-01" purity="2.9597085714340210e-01" nType="0">
          <Node pos="l" depth="2" NCoef="0" IVar="-1" Cut="0.0000000000000000e+00" cType="1" res="-3.5361167043447495e-02" rms="4.3768471479415894e-01" purity="3.5021799802780151e-01" nType="-99"/>
          <Node pos="r" depth="2" NCoef="0" IVar="-1" Cut="0.0000000000000000e+00" cType="1" res="-6.8115353584289551e-02" rms="3.7731745839118958e-01" purity="2.0975258946418762e-01" nType="-99"/>
        </Node>
      </Node>
    </BinaryTree>
    <BinaryTree type="DecisionTree" boostWeight="1.0000000000000000e+00" itree="9">
      <Node pos="s" depth="0" NCoef="0" IVar="2" Cut="2.4282793998718262e+00" cType="1" res="-7.1484791114926338e-03" rms="3.8280045986175537e-01" purity="5.0000000000000000e-01" nType="0">
        <Node pos="l" depth="1" NCoef="0" IVar="6" Cut="3.0476191043853760e+00" cType="1" res="1.1977518908679485e-02" rms="3.6975392699241638e-01" purity="5.3463280200958252e-01" nType="0">
          <Node pos="l" depth="2" NCoef="0" IVar="4" Cut="-2.8571429252624512e+00" cType="1" res="-3.0708286911249161e-02" rms="1.7868651449680328e-01" purity="5.6926834583282471e-01" nType="0">
            <Node pos="l" depth="3" NCoef="0" IVar="2" Cut="-2.7415220737457275e+00" cType="1" res="9.9677965044975281e-02" rms="4.3116193264722824e-02" purity="1.0000000000000000e+00" nType="0">
              <Node pos="l" depth="4" NCoef="0" IVar="-1" Cut="0.0000000000000000e+00" cType="1" res="1.1838881671428680e-01" rms="2.5607137743577368e-08" purity="1.0000000000000000e+00" nType="-99"/>
              <Node pos="r" depth="4" NCoef="0" IVar="-1" Cut="0.0000000000000000e+00" cType="1" res="1.2818330526351929e-01" rms="4.1500151157379150e-02" purity="1.0000000000000000e+00" nType="-99"/>
            </Node>
            <Node pos="r" depth="3" NCoef="0" IVar="1" Cut="8.0952382087707520e-01" cType="1" res="-2.0303080976009369e-01" rms="1.3966602087020874e-01" purity="0.0000000000000000e+00" nType="0">
              <Node pos="l" depth="4" NCoef="0" IVar="-1" Cut="0.0000000000000000e+00" cType="1" res="-9.7606770694255829e-02" rms="7.7387983910739422e-03" purity="0.0000000000000000e+00" nType="-99"/>
              <Node pos="r" depth="4" NCoef="0" IVar="-1" Cut="0.0000000000000000e+00" cType="1" res="-1.3476140797138214e-01" rms="1.3527056574821472e-01" purity="0.0000000000000000e+00" nType="-99"/>
            </Node>
          </Node>
          <Node pos="r" depth="2" NCoef="0" IVar="5" Cut="1.4096425771713257e+00" cType="1" res="3.2790403813123703e-02" rms="4.3184462189674377e-01" purity="5.1774507761001587e-01" nType="0">
            <Node pos="l" depth="3" NCoef="0" IVar="2" Cut="1.3942521810531616e+00" cType="1" res="7.5399152934551239e-02" rms="4.2847993969917297e-01" purity="6.1881756782531738e-01" nType="0">
              <Node pos="l" depth="4" NCoef="0" IVar="-1" Cut="0.0000000000000000e+00" cType="1" res="5.0916247069835663e-02" rms="4.3418663740158081e-01" purity="6.2116491794586182e-01" nType="-99"/>
              <Node pos="r" depth="4" NCoef="0" IVar="-1" Cut="0.0000000000000000e+00" cType="1" res="2.3925932124257088e-02" rms="4.2217549681663513e-01" purity="6.1695688962936401e-01" nType="-99"/>
            </Node>
            <Node pos="r" depth="3" NCoef="0" IVar="0" Cut="8.8328809738159180e+00" cType="1" res="8.4029100835323334e-03" rms="4.3187120556831360e-01" purity="4.5989531278610229e-01" nType="0">
              <Node pos="l" depth="4" NCoef="0" IVar="-1" Cut="0.0000000000000000e+00" cType="1" res="-3.6200992763042450e-03" rms="4.3493604660034180e-01" purity="3.8014474511146545e-01" nType="-99"/>
              <Node pos="r" depth="4" NCoef="0" IVar="-1" Cut="0.0000000000000000e+00" cType="1" res="2.6355413720011711e-02" rms="4.1970655322074890e-01" purity="6.8437373638153076e-01" nType="-99"/>
            </Node>
          </Node>
        </Node>
        <Node pos="r" depth="1" NCoef="0" IVar="0" Cut="9.5227079391479492e+00" cType="1" res="-4.8748593777418137e-02" rms="4.0665113925933838e-01" purity="4.2467179894447327e-01" nType="0">
          <Node pos="l" depth="2" NCoef="0" IVar="6" Cut="9.1428575515747070e+00" cType="1" res="-7.1875281631946564e-02" rms="3.9974924921989441e-01" purity="3.4333673119544983e-01" nType="0">
            <Node pos="l" depth="3" NCoef="0" IVar="0" Cut="5.8935961723327637e+00" cType="1" res="-5.0053387880325317e-02" rms="3.9544254541397095e-01" purity="4.0299630165100098e-01" nType="0">
              <Node pos="l" depth="4" NCoef="0" IVar="-1" Cut="0.0000000000000000e+00" cType="1" res="-2.7196256443858147e-02" rms="3.9323800802230835e-01" purity="3.6697575449943542e-01" nType="-99"/>
              <Node pos="r" depth="4" NCoef="0" IVar="-1" Cut="0.0000000000000000e+00" cType="1" res="-1.0282867588102818e-02" rms="4.0087342262268066e-01" purity="5.1496797800064087e-01" nType="-99"/>
            </Node>
            <Node pos="r" depth="3" NCoef="0" IVar="2" Cut="4.3669514656066895e+00" cType="1" res="-1.0463128238916397e-01" rms="4.0392118692398071e-01" purity="2.5378406047821045e-01" nType="0">
              <Node pos="l" depth="4" NCoef="0" IVar="-1" Cut="0.0000000000000000e+00" cType="1" res="-3.6605913192033768e-02" rms="4.1785952448844910e-01" purity="2.8620487451553345e-01" nType="-99"/>
              <Node pos="r" depth="4" NCoef="0" IVar="-1" Cut="0.0000000000000000e+00" cType="1" res="-6.3470758497714996e-02" rms="3.7014740705490112e-01" purity="1.8687348067760468e-01" nType="-99"/>
            </Node>
          </Node>
          <Node pos="r" depth="2" NCoef="0" IVar="0" Cut="1.3830639839172363e+01" cType="1" res="1.6776349395513535e-02" rms="4.1871896386146545e-01" purity="6.5511876344680786e-01" nType="0">
            <Node pos="l" depth="3" NCoef="0" IVar="-1" Cut="0.0000000000000000e+00" cType="1" res="-8.6172027513384819e-03" rms="4.2375317215919495e-01" purity="5.9354031085968018e-01" nType="-99"/>
            <Node pos="r" depth="3" NCoef="0" IVar="-1" Cut="0.0000000000000000e+00" cType="1" res="2.0330544561147690e-02" rms="4.1352298855781555e-01" purity="6.9739937782287598e-01" nType="-99"/>
          </Node>
        </Node>
      </Node>
    </BinaryTree>
    <BinaryTree type="DecisionTree" boostWeight="1.0000000000000000e+00" itree="10">
      <Node pos="s" depth="0" NCoef="0" IVar="2" Cut="3.3329925537109375e+00" cType="1" res="-6.6391658037900925e-03" rms="3.7868189811706543e-01" purity="5.0000000000000000e-01" nType="0">
        <Node pos="l" depth="1" NCoef="0" IVar="6" Cut="3.0476191043853760e+00" cType="1" res="3.2849477138370275e-03" rms="3.7286815047264099e-01" purity="5.2474492788314819e-01" nType="0">
          <Node pos="l" depth="2" NCoef="0" IVar="4" Cut="-2.8571429252624512e+00" cType="1" res="-2.8247237205505371e-02" rms="1.5852941572666168e-01" purity="5.7003831863403320e-01" nType="0">
            <Node pos="l" depth="3" NCoef="0" IVar="1" Cut="-2.8095238208770752e+00" cType="1" res="8.4061361849308014e-02" rms="4.0744982659816742e-02" purity="1.0000000000000000e+00" nType="0">
              <Node pos="l" depth="4" NCoef="0" IVar="-1" Cut="0.0000000000000000e+00" cType="1" res="1.1681746691465378e-01" rms="0.0000000000000000e+00" purity="1.0000000000000000e+00" nType="-99"/>
              <Node pos="r" depth="4" NCoef="0" IVar="-1" Cut="0.0000000000000000e+00" cType="1" res="1.2567840516567230e-01" rms="4.0415938943624496e-02" purity="1.0000000000000000e+00" nType="-99"/>
            </Node>
            <Node pos="r" depth="3" NCoef="0" IVar="1" Cut="9.5238095521926880e-01" cType="1" res="-1.7714472115039825e-01" rms="1.3174518942832947e-01" purity="0.0000000000000000e+00" nType="0">
              <Node pos="l" depth="4" NCoef="0" IVar="-1" Cut="0.0000000000000000e+00" cType="1" res="-9.8032161593437195e-02" rms="2.9388299211859703e-02" purity="0.0000000000000000e+00" nType="-99"/>
              <Node pos="r" depth="4" NCoef="0" IVar="-1" Cut="0.0000000000000000e+00" cType="1" res="-1.2998498976230621e-01" rms="1.3481506705284119e-01" purity="0.0000000000000000e+00" nType="-99"/>
            </Node>
          </Node>
          <Node pos="r" depth="2" NCoef="0" IVar="5" Cut="1.4096425771713257e+00" cType="1" res="1.5868376940488815e-02" rms="4.2886921763420105e-01" purity="5.0666993856430054e-01" nType="0">
            <Node pos="l" depth="3" NCoef="0" IVar="2" Cut="1.2217839956283569e+00" cType="1" res="5.0917100161314011e-02" rms="4.2686444520950317e-01" purity="6.1012226343154907e-01" nType="0">
              <Node pos="l" depth="4" NCoef="0" IVar="-1" Cut="0.0000000000000000e+00" cType="1" res="4.4303409755229950e-02" rms="4.3342727422714233e-01" purity="6.1908692121505737e-01" nType="-99"/>
              <Node pos="r" depth="4" NCoef="0" IVar="-1" Cut="0.0000000000000000e+00" cType="1" res="1.6986064612865448e-02" rms="4.2341589927673340e-01" purity="6.0688370466232300e-01" nType="-99"/>
            </Node>
            <Node pos="r" depth="3" NCoef="0" IVar="0" Cut="8.8328809738159180e+00" cType="1" res="-3.2587805762887001e-03" rms="4.2875263094902039e-01" purity="4.5021277666091919e-01" nType="0">
              <Node pos="l" depth="4" NCoef="0" IVar="-1" Cut="0.0000000000000000e+00" cType="1" res="-8.1880362704396248e-03" rms="4.3081784248352051e-01" purity="3.6585894227027893e-01" nType="-99"/>
              <Node pos="r" depth="4" NCoef="0" IVar="-1" Cut="0.0000000000000000e+00" cType="1" res="1.8216034397482872e-02" rms="4.2039144039154053e-01" purity="6.8096190690994263e-01" nType="-99"/>
            </Node>
          </Node>
        </Node>
        <Node pos="r" depth="1" NCoef="0" IVar="0" Cut="4.5921955108642578e+00" cType="1" res="-5.8092668652534485e-02" rms="4.0360316634178162e-01" purity="3.7170496582984924e-01" nType="0">
          <Node pos="l" depth="2" NCoef="0" IVar="6" Cut="9.1428575515747070e+00" cType="1" res="-9.0962573885917664e-02" rms="3.7675675749778748e-01" purity="2.7394044399261475e-01" nType="0">
            <Node pos="l" depth="3" NCoef="0" IVar="-1" Cut="0.0000000000000000e+00" cType="1" res="-3.0903754755854607e-02" rms="3.8463032245635986e-01" purity="3.4654706716537476e-01" nType="-99"/>
            <Node pos="r" depth="3" NCoef="0" IVar="-1" Cut="0.0000000000000000e+00" cType="1" res="-5.4750651121139526e-02" rms="3.6490389704704285e-01" purity="1.8631112575531006e-01" nType="-99"/>
          </Node>
          <Node pos="r" depth="2" NCoef="0" IVar="0" Cut="8.9661531448364258e+00" cType="1" res="-2.2839743643999100e-02" rms="4.2774140834808350e-01" purity="4.7655722498893738e-01" nType="0">
            <Node pos="l" depth="3" NCoef="0" IVar="-1" Cut="0.0000000000000000e+00" cType="1" res="-1.9106617197394371e-02" rms="4.1220006346702576e-01" purity="3.8021504878997803e-01" nType="-99"/>
            <Node pos="r" depth="3" NCoef="0" IVar="-1" Cut="0.0000000000000000e+00" cType="1" res="-1.3638010714203119e-03" rms="4.4231346249580383e-01" purity="5.7583826780319214e-01" nType="-99"/>
          </Node>
        </Node>
      </Node>
    </BinaryTree>
    <BinaryTree type="DecisionTree" boostWeight="1.0000000000000000e+00" itree="11">
      <Node pos="s" depth="0" NCoef="0" IVar="6" Cut="1.5238095283508301e+01" cType="1" res="-6.1224326491355896e-03" rms="3.7558105587959290e-01" purity="5.0000000000000000e-01" nType="0">
        <Node pos="l" depth="1" NCoef="0" IVar="3" Cut="1.9047619104385376e+00" cType="1" res="-2.0406118128448725e-03" rms="3.7420266866683960e-01" purity="5.0963538885116577e-01" nType="0">
          <Node pos="l" depth="2" NCoef="0" IVar="4" Cut="1.6885784268379211e-01" cType="1" res="-7.5933379121124744e-03" rms="3.7067562341690063e-01" purity="4.8391237854957581e-01" nType="0">
            <Node pos="l" depth="3" NCoef="0" IVar="4" Cut="-2.8491020202636719e+00" cType="1" res="-6.1238925904035568e-02" rms="2.9907444119453430e-01" purity="4.2665565013885498e-01" nType="0">
              <Node pos="l" depth="4" NCoef="0" IVar="-1" Cut="0.0000000000000000e+00" cType="1" res="1.2347050011157990e-01" rms="4.1932497173547745e-02" purity="1.0000000000000000e+00" nType="-99"/>
              <Node pos="r" depth="4" NCoef="0" IVar="-1" Cut="0.0000000000000000e+00" cType="1" res="-6.3876330852508545e-02" rms="3.4178110957145691e-01" purity="1.5933614969253540e-01" nType="-99"/>
            </Node>
            <Node pos="r" depth="3" NCoef="0" IVar="6" Cut="8.1904764175415039e+00" cType="1" res="9.9524520337581635e-02" rms="4.6468764543533325e-01" purity="5.9824103116989136e-01" nType="0">
              <Node pos="l" depth="4" NCoef="0" IVar="-1" Cut="0.0000000000000000e+00" cType="1" res="6.3712440431118011e-02" rms="4.5591485500335693e-01" purity="6.6428893804550171e-01" nType="-99"/>
              <Node pos="r" depth="4" NCoef="0" IVar="-1" Cut="0.0000000000000000e+00" cType="1" res="2.1714838221669197e-02" rms="4.6869605779647827e-01" purity="5.2951985597610474e-01" nType="-99"/>
            </Node>
          </Node>
          <Node pos="r" depth="2" NCoef="0" IVar="0" Cut="8.3063850402832031e+00" cType="1" res="5.4955266416072845e-02" rms="4.0426447987556458e-01" purity="7.7366864681243896e-01" nType="0">
            <Node pos="l" depth="3" NCoef="0" IVar="-1" Cut="0.0000000000000000e+00" cType="1" res="3.3383179455995560e-02" rms="4.5304343104362488e-01" purity="6.9972145557403564e-01" nType="-99"/>
            <Node pos="r" depth="3" NCoef="0" IVar="6" Cut="5.0952382087707520e+00" cType="1" res="4.2511586099863052e-02" rms="3.6925387382507324e-01" purity="8.2085329294204712e-01" nType="0">
              <Node pos="l" depth="4" NCoef="0" IVar="-1" Cut="0.0000000000000000e+00" cType="1" res="1.6006901860237122e-02" rms="3.5868427157402039e-01" purity="8.1632232666015625e-01" nType="-99"/>
              <Node pos="r" depth="4" NCoef="0" IVar="-1" Cut="0.0000000000000000e+00" cType="1" res="3.6083083599805832e-02" rms="3.7866488099098206e-01" purity="8.2537913322448730e-01" nType="-99"/>
            </Node>
          </Node>
        </Node>
        <Node pos="r" depth="1" NCoef="0" IVar="-1" Cut="0.0000000000000000e+00" cType="1" res="-4.9097225069999695e-02" rms="3.9521706104278564e-01" purity="2.5191587209701538e-01" nType="-99"/>
      </Node>
    </BinaryTree>
    <BinaryTree type="DecisionTree" boostWeight="1.0000000000000000e+00" itree="12">
      <Node pos="s" depth="0" NCoef="0" IVar="2" Cut="1.9759227037429810e+00" cType="1" res="-6.0459910891950130e-03" rms="3.6988824605941772e-01" purity="5.0000000000000000e-01" nType="0">
        <Node pos="l" depth="1" NCoef="0" IVar="6" Cut="3.0476191043853760e+00" cType="1" res="1.0101100429892540e-02" rms="3.4675264358520508e-01" purity="5.3870189189910889e-01" nType="0">
          <Node pos="l" depth="2" NCoef="0" IVar="4" Cut="-2.8571429252624512e+00" cType="1" res="-2.4534752592444420e-02" rms="1.1220204085111618e-01" purity="5.6868040561676025e-01" nType="0">
            <Node pos="l" depth="3" NCoef="0" IVar="2" Cut="-2.7630631923675537e+00" cType="1" res="5.0672013312578201e-02" rms="2.7393501251935959e-02" purity="1.0000000000000000e+00" nType="0">
              <Node pos="l" depth="4" NCoef="0" IVar="-1" Cut="0.0000000000000000e+00" cType="1" res="1.1457318067550659e-01" rms="0.0000000000000000e+00" purity="1.0000000000000000e+00" nType="-99"/>
              <Node pos="r" depth="4" NCoef="0" IVar="-1" Cut="0.0000000000000000e+00" cType="1" res="1.2008278816938400e-01" rms="2.9252998530864716e-02" purity="1.0000000000000000e+00" nType="-99"/>
            </Node>
            <Node pos="r" depth="3" NCoef="0" IVar="1" Cut="9.5238095521926880e-01" cType="1" res="-1.2369235605001450e-01" rms="1.0444583743810654e-01" purity="0.0000000000000000e+00" nType="0">
              <Node pos="l" depth="4" NCoef="0" IVar="-1" Cut="0.0000000000000000e+00" cType="1" res="-9.5305815339088440e-02" rms="1.9995315000414848e-02" purity="0.0000000000000000e+00" nType="-99"/>
              <Node pos="r" depth="4" NCoef="0" IVar="-1" Cut="0.0000000000000000e+00" cType="1" res="-1.1873602867126465e-01" rms="1.1506620794534683e-01" purity="0.0000000000000000e+00" nType="-99"/>
            </Node>
          </Node>
          <Node pos="r" depth="2" NCoef="0" IVar="6" Cut="1.2000000000000000e+01" cType="1" res="3.0424704775214195e-02" rms="4.2694973945617676e-01" purity="5.2111113071441650e-01" nType="0">
            <Node pos="l" depth="3" NCoef="0" IVar="5" Cut="1.9131295680999756e+00" cType="1" res="3.5682823508977890e-02" rms="4.2493733763694763e-01" purity="5.3260356187820435e-01" nType="0">
              <Node pos="l" depth="4" NCoef="0" IVar="-1" Cut="0.0000000000000000e+00" cType="1" res="2.2975942119956017e-02" rms="4.2441710829734802e-01" purity="5.7363355159759521e-01" nType="-99"/>
              <Node pos="r" depth="4" NCoef="0" IVar="-1" Cut="0.0000000000000000e+00" cType="1" res="9.7398161888122559e-03" rms="4.2517820000648499e-01" purity="4.7504377365112305e-01" nType="-99"/>
            </Node>
            <Node pos="r" depth="3" NCoef="0" IVar="-1" Cut="0.0000000000000000e+00" cType="1" res="-1.2697093188762665e-02" rms="4.4478389620780945e-01" purity="3.9106011390686035e-01" nType="-99"/>
          </Node>
        </Node>
        <Node pos="r" depth="1" NCoef="0" IVar="1" Cut="9.5238095521926880e-01" cType="1" res="-2.7256470173597336e-02" rms="3.9724546670913696e-01" purity="4.4916200637817383e-01" nType="0">
          <Node pos="l" depth="2" NCoef="0" IVar="2" Cut="3.0521678924560547e+00" cType="1" res="2.9137590900063515e-02" rms="4.2354258894920349e-01" purity="5.0535142421722412e-01" nType="0">
            <Node pos="l" depth="3" NCoef="0" IVar="-1" Cut="0.0000000000000000e+00" cType="1" res="2.3407736793160439e-02" rms="4.2510277032852173e-01" purity="5.4939591884613037e-01" nType="-99"/>
            <Node pos="r" depth="3" NCoef="0" IVar="-1" Cut="0.0000000000000000e+00" cType="1" res="-1.2474880786612630e-03" rms="4.1913440823554993e-01" purity="4.3727844953536987e-01" nType="-99"/>
          </Node>
          <Node pos="r" depth="2" NCoef="0" IVar="0" Cut="4.7862954139709473e+00" cType="1" res="-3.7912841886281967e-02" rms="3.9116597175598145e-01" purity="4.3854433298110962e-01" nType="0">
            <Node pos="l" depth="3" NCoef="0" IVar="1" Cut="9.7959673404693604e-01" cType="1" res="-6.0797449201345444e-02" rms="3.8903722167015076e-01" purity="3.0782499909400940e-01" nType="0">
              <Node pos="l" depth="4" NCoef="0" IVar="-1" Cut="0.0000000000000000e+00" cType="1" res="-1.5263385139405727e-03" rms="4.0325006842613220e-01" purity="3.4687528014183044e-01" nType="-99"/>
              <Node pos="r" depth="4" NCoef="0" IVar="-1" Cut="0.0000000000000000e+00" cType="1" res="-3.3857874572277069e-02" rms="3.8546413183212280e-01" purity="3.0071249604225159e-01" nType="-99"/>
            </Node>
            <Node pos="r" depth="3" NCoef="0" IVar="6" Cut="6.0000000000000000e+00" cType="1" res="-1.5032427385449409e-02" rms="3.9194929599761963e-01" purity="5.6923967599868774e-01" nType="0">
              <Node pos="l" depth="4" NCoef="0" IVar="-1" Cut="0.0000000000000000e+00" cType="1" res="-2.1679684519767761e-02" rms="3.3516266942024231e-01" purity="6.1897897720336914e-01" nType="-99"/>
              <Node pos="r" depth="4" NCoef="0" IVar="-1" Cut="0.0000000000000000e+00" cType="1" res="1.8768116133287549e-03" rms="4.3772855401039124e-01" purity="5.2257710695266724e-01" nType="-99"/>
            </Node>
          </Node>
        </Node>
      </Node>
    </BinaryTree>
    <BinaryTree type="DecisionTree" boostWeight="1.0000000000000000e+00" itree="13">
      <Node pos="s" depth="0" NCoef="0" IVar="6" Cut="1.3714285850524902e+01" cType="1" res="-5.3562414832413197e-03" rms="3.6807090044021606e-01" purity="5.0000000000000000e-01" nType="0">
        <Node pos="l" depth="1" NCoef="0" IVar="3" Cut="1.9047619104385376e+00" cType="1" res="-7.9185486538335681e-04" rms="3.6397549510002136e-01" purity="5.1581746339797974e-01" nType="0">
          <Node pos="l" depth="2" NCoef="0" IVar="4" Cut="5.5246081203222275e-02" cType="1" res="-5.0788396038115025e-03" rms="3.6000618338584900e-01" purity="4.9018898606300354e-01" nType="0">
            <Node pos="l" depth="3" NCoef="0" IVar="4" Cut="-2.8545129299163818e+00" cType="1" res="-6.7194864153862000e-02" rms="2.0185984671115875e-01" purity="4.6667930483818054e-01" nType="0">
              <Node pos="l" depth="4" NCoef="0" IVar="-1" Cut="0.0000000000000000e+00" cType="1" res="1.2111965566873550e-01" rms="3.8618259131908417e-02" purity="1.0000000000000000e+00" nType="-99"/>
              <Node pos="r" depth="4" NCoef="0" IVar="-1" Cut="0.0000000000000000e+00" cType="1" res="-1.0230057686567307e-01" rms="2.2215977311134338e-01" purity="4.2832322418689728e-02" nType="-99"/>
            </Node>
            <Node pos="r" depth="3" NCoef="0" IVar="6" Cut="6.1428570747375488e+00" cType="1" res="5.6197781115770340e-02" rms="4.5792973041534424e-01" purity="5.1338100433349609e-01" nType="0">
              <Node pos="l" depth="4" NCoef="0" IVar="-1" Cut="0.0000000000000000e+00" cType="1" res="5.7250928133726120e-02" rms="4.6464636921882629e-01" purity="5.9843868017196655e-01" nType="-99"/>
              <Node pos="r" depth="4" NCoef="0" IVar="-1" Cut="0.0000000000000000e+00" cType="1" res="1.0936152189970016e-02" rms="4.5136669278144836e-01" purity="4.7623500227928162e-01" nType="-99"/>
            </Node>
          </Node>
          <Node pos="r" depth="2" NCoef="0" IVar="2" Cut="2.0746424198150635e+00" cType="1" res="4.2875736951828003e-02" rms="3.9956983923912048e-01" purity="7.7687108516693115e-01" nType="0">
            <Node pos="l" depth="3" NCoef="0" IVar="-1" Cut="0.0000000000000000e+00" cType="1" res="1.5670249238610268e-02" rms="3.8319090008735657e-01" purity="7.9079180955886841e-01" nType="-99"/>
            <Node pos="r" depth="3" NCoef="0" IVar="-1" Cut="0.0000000000000000e+00" cType="1" res="3.1133593991398811e-02" rms="4.1428744792938232e-01" purity="7.6324784755706787e-01" nType="-99"/>
          </Node>
        </Node>
        <Node pos="r" depth="1" NCoef="0" IVar="6" Cut="1.6571428298950195e+01" cType="1" res="-6.4232215285301208e-02" rms="4.1281062364578247e-01" purity="2.9597085714340210e-01" nType="0">
          <Node pos="l" depth="2" NCoef="0" IVar="-1" Cut="0.0000000000000000e+00" cType="1" res="-2.0431719720363617e-02" rms="4.2548024654388428e-01" purity="3.3203065395355225e-01" nType="-99"/>
          <Node pos="r" depth="2" NCoef="0" IVar="-1" Cut="0.0000000000000000e+00" cType="1" res="-4.4502649456262589e-02" rms="3.8810175657272339e-01" purity="2.3452317714691162e-01" nType="-99"/>
        </Node>
      </Node>
    </BinaryTree>
    <BinaryTree type="DecisionTree" boostWeight="1.0000000000000000e+00" itree="14">
      <Node pos="s" depth="0" NCoef="0" IVar="2" Cut="2.4282793998718262e+00" cType="1" res="-5.5060461163520813e-03" rms="3.6269128322601318e-01" purity="5.0000000000000000e-01" nType="0">
        <Node pos="l" depth="1" NCoef="0" IVar="6" Cut="3.0476191043853760e+00" cType="1" res="4.1297012940049171e-03" rms="3.4842202067375183e-01" purity="5.3463280200958252e-01" nType="0">
          <Node pos="l" depth="2" NCoef="0" IVar="4" Cut="-2.8571429252624512e+00" cType="1" res="-1.9891513511538506e-02" rms="9.1868139803409576e-02" purity="5.6926834583282471e-01" nType="0">
            <Node pos="l" depth="3" NCoef="0" IVar="2" Cut="-2.7415220737457275e+00" cType="1" res="3.5489249974489212e-02" rms="2.5321006774902344e-02" purity="1.0000000000000000e+00" nType="0">
              <Node pos="l" depth="4" NCoef="0" IVar="-1" Cut="0.0000000000000000e+00" cType="1" res="1.1320601403713226e-01" rms="0.0000000000000000e+00" purity="1.0000000000000000e+00" nType="-99"/>
              <Node pos="r" depth="4" NCoef="0" IVar="-1" Cut="0.0000000000000000e+00" cType="1" res="1.1827792227268219e-01" rms="2.8142683207988739e-02" purity="1.0000000000000000e+00" nType="-99"/>
            </Node>
            <Node pos="r" depth="3" NCoef="0" IVar="1" Cut="9.5238095521926880e-01" cType="1" res="-9.3084454536437988e-02" rms="9.6622690558433533e-02" purity="0.0000000000000000e+00" nType="0">
              <Node pos="l" depth="4" NCoef="0" IVar="-1" Cut="0.0000000000000000e+00" cType="1" res="-9.3460440635681152e-02" rms="1.5867121517658234e-02" purity="0.0000000000000000e+00" nType="-99"/>
              <Node pos="r" depth="4" NCoef="0" IVar="-1" Cut="0.0000000000000000e+00" cType="1" res="-1.1500507593154907e-01" rms="1.1154502630233765e-01" purity="0.0000000000000000e+00" nType="-99"/>
            </Node>
          </Node>
          <Node pos="r" depth="2" NCoef="0" IVar="2" Cut="1.6527502536773682e+00" cType="1" res="1.5842042863368988e-02" rms="4.1959011554718018e-01" purity="5.1774507761001587e-01" nType="0">
            <Node pos="l" depth="3" NCoef="0" IVar="6" Cut="9.9523811340332031e+00" cType="1" res="2.8682490810751915e-02" rms="4.2283013463020325e-01" purity="5.2196246385574341e-01" nType="0">
              <Node pos="l" depth="4" NCoef="0" IVar="-1" Cut="0.0000000000000000e+00" cType="1" res="1.8496591597795486e-02" rms="4.1486144065856934e-01" purity="5.4034441709518433e-01" nType="-99"/>
              <Node pos="r" depth="4" NCoef="0" IVar="-1" Cut="0.0000000000000000e+00" cType="1" res="-1.0034639853984118e-03" rms="4.5198047161102295e-01" purity="4.4844543933868408e-01" nType="-99"/>
            </Node>
            <Node pos="r" depth="3" NCoef="0" IVar="1" Cut="9.5238095521926880e-01" cType="1" res="-2.0474449265748262e-03" rms="4.1437110304832458e-01" purity="5.1186925172805786e-01" nType="0">
              <Node pos="l" depth="4" NCoef="0" IVar="-1" Cut="0.0000000000000000e+00" cType="1" res="2.7277173474431038e-02" rms="4.2849197983741760e-01" purity="5.8135706186294556e-01" nType="-99"/>
              <Node pos="r" depth="4" NCoef="0" IVar="-1" Cut="0.0000000000000000e+00" cType="1" res="-8.5428291931748390e-03" rms="4.0928262472152710e-01" purity="4.9408325552940369e-01" nType="-99"/>
            </Node>
          </Node>
        </Node>
        <Node pos="r" depth="1" NCoef="0" IVar="0" Cut="1.4284062385559082e+01" cType="1" res="-2.6464335620403290e-02" rms="3.9111921191215515e-01" purity="4.2467179894447327e-01" nType="0">
          <Node pos="l" depth="2" NCoef="0" IVar="6" Cut="1.2000000000000000e+01" cType="1" res="-3.4421939402818680e-02" rms="3.8914498686790466e-01" purity="3.7740617990493774e-01" nType="0">
            <Node pos="l" depth="3" NCoef="0" IVar="5" Cut="2.0450515747070312e+00" cType="1" res="-2.6421409100294113e-02" rms="3.8854148983955383e-01" purity="4.1044843196868896e-01" nType="0">
              <Node pos="l" depth="4" NCoef="0" IVar="-1" Cut="0.0000000000000000e+00" cType="1" res="-6.6373688168823719e-03" rms="3.8708129525184631e-01" purity="4.5420846343040466e-01" nType="-99"/>
              <Node pos="r" depth="4" NCoef="0" IVar="-1" Cut="0.0000000000000000e+00" cType="1" res="-2.2306350991129875e-02" rms="3.8978481292724609e-01" purity="3.4969237446784973e-01" nType="-99"/>
            </Node>
            <Node pos="r" depth="3" NCoef="0" IVar="-1" Cut="0.0000000000000000e+00" cType="1" res="-3.3152706921100616e-02" rms="3.8986220955848694e-01" purity="2.3516112565994263e-01" nType="-99"/>
          </Node>
          <Node pos="r" depth="2" NCoef="0" IVar="-1" Cut="0.0000000000000000e+00" cType="1" res="1.0605640709400177e-02" rms="3.9929038286209106e-01" purity="7.0019924640655518e-01" nType="-99"/>
        </Node>
      </Node>
    </BinaryTree>
    <BinaryTree type="DecisionTree" boostWeight="1.0000000000000000e+00" itree="15">
      <Node pos="s" depth="0" NCoef="0" IVar="3" Cut="1.9047619104385376e+00" cType="1" res="-4.8256875015795231e-03" rms="3.6153024435043335e-01" purity="5.0000000000000000e-01" nType="0">
        <Node pos="l" depth="1" NCoef="0" IVar="4" Cut="2.0732043683528900e-01" cType="1" res="-8.5338866338133812e-03" rms="3.5732856392860413e-01" purity="4.7417804598808289e-01" nType="0">
          <Node pos="l" depth="2" NCoef="0" IVar="4" Cut="-2.8472704887390137e+00" cType="1" res="-4.1314348578453064e-02" rms="2.9783186316490173e-01" purity="4.2139133810997009e-01" nType="0">
            <Node pos="l" depth="3" NCoef="0" IVar="2" Cut="2.4266974925994873e+00" cType="1" res="4.3283291161060333e-02" rms="3.4092113375663757e-02" purity="1.0000000000000000e+00" nType="0">
              <Node pos="l" depth="4" NCoef="0" IVar="-1" Cut="0.0000000000000000e+00" cType="1" res="1.1579216271638870e-01" rms="1.8251454457640648e-02" purity="1.0000000000000000e+00" nType="-99"/>
              <Node pos="r" depth="4" NCoef="0" IVar="-1" Cut="0.0000000000000000e+00" cType="1" res="1.2495233863592148e-01" rms="3.3722881227731705e-02" purity="1.0000000000000000e+00" nType="-99"/>
            </Node>
            <Node pos="r" depth="3" NCoef="0" IVar="4" Cut="2.9617009684443474e-02" cType="1" res="-7.5910508632659912e-02" rms="3.4695854783058167e-01" purity="1.8476967513561249e-01" nType="0">
              <Node pos="l" depth="4" NCoef="0" IVar="-1" Cut="0.0000000000000000e+00" cType="1" res="-1.1205025017261505e-01" rms="1.6351966559886932e-01" purity="1.2976231053471565e-02" nType="-99"/>
              <Node pos="r" depth="4" NCoef="0" IVar="-1" Cut="0.0000000000000000e+00" cType="1" res="-9.5880739390850067e-03" rms="4.2909643054008484e-01" purity="3.1474488973617554e-01" nType="-99"/>
            </Node>
          </Node>
          <Node pos="r" depth="2" NCoef="0" IVar="3" Cut="8.3677494525909424e-01" cType="1" res="6.8481154739856720e-02" rms="4.5913815498352051e-01" purity="5.9819614887237549e-01" nType="0">
            <Node pos="l" depth="3" NCoef="0" IVar="6" Cut="9.3333330154418945e+00" cType="1" res="3.7242308259010315e-02" rms="4.6761366724967957e-01" purity="5.3021603822708130e-01" nType="0">
              <Node pos="l" depth="4" NCoef="0" IVar="-1" Cut="0.0000000000000000e+00" cType="1" res="3.2221525907516479e-02" rms="4.6668273210525513e-01" purity="6.2044876813888550e-01" nType="-99"/>
              <Node pos="r" depth="4" NCoef="0" IVar="-1" Cut="0.0000000000000000e+00" cType="1" res="-2.3638254497200251e-03" rms="4.6505600214004517e-01" purity="4.2542693018913269e-01" nType="-99"/>
            </Node>
            <Node pos="r" depth="3" NCoef="0" IVar="3" Cut="1.2435730695724487e+00" cType="1" res="1.1380210518836975e-01" rms="4.4265398383140564e-01" purity="6.9682085514068604e-01" nType="0">
              <Node pos="l" depth="4" NCoef="0" IVar="-1" Cut="0.0000000000000000e+00" cType="1" res="4.0566641837358475e-02" rms="4.5173460245132446e-01" purity="6.6990512609481812e-01" nType="-99"/>
              <Node pos="r" depth="4" NCoef="0" IVar="-1" Cut="0.0000000000000000e+00" cType="1" res="6.4762435853481293e-02" rms="4.2899546027183533e-01" purity="7.3126864433288574e-01" nType="-99"/>
            </Node>
          </Node>
        </Node>
        <Node pos="r" depth="1" NCoef="0" IVar="2" Cut="2.6604652404785156e+00" cType="1" res="3.4011300653219223e-02" rms="4.0085607767105103e-01" purity="7.7044034004211426e-01" nType="0">
          <Node pos="l" depth="2" NCoef="0" IVar="6" Cut="5.4285712242126465e+00" cType="1" res="2.2004880011081696e-02" rms="3.8706737756729126e-01" purity="7.8451263904571533e-01" nType="0">
            <Node pos="l" depth="3" NCoef="0" IVar="-1" Cut="0.0000000000000000e+00" cType="1" res="6.8254177458584309e-03" rms="3.4413534402847290e-01" purity="8.0871677398681641e-01" nType="-99"/>
            <Node pos="r" depth="3" NCoef="0" IVar="-1" Cut="0.0000000000000000e+00" cType="1" res="1.7482437193393707e-02" rms="4.1701868176460266e-01" purity="7.6578640937805176e-01" nType="-99"/>
          </Node>
          <Node pos="r" depth="2" NCoef="0" IVar="-1" Cut="0.0000000000000000e+00" cType="1" res="2.9836898669600487e-02" rms="4.2711913585662842e-01" purity="7.4107158184051514e-01" nType="-99"/>
        </Node>
      </Node>
    </BinaryTree>
    <BinaryTree type="DecisionTree" boostWeight="1.0000000000000000e+00" itree="16">
      <Node pos="s" depth="0" NCoef="0" IVar="6" Cut="1.3714285850524902e+01" cType="1" res="-4.9314964562654495e-03" rms="3.5740113258361816e-01" purity="5.0000000000000000e-01" nType="0">
        <Node pos="l" depth="1" NCoef="0" IVar="2" Cut="2.4282793998718262e+00" cType="1" res="-1.5742611140012741e-03" rms="3.5270980000495911e-01" purity="5.1581746339797974e-01" nType="0">
          <Node pos="l" depth="2" NCoef="0" IVar="6" Cut="3.0952382087707520e+00" cType="1" res="4.5787366107106209e-03" rms="3.3816289901733398e-01" purity="5.4229444265365601e-01" nType="0">
            <Node pos="l" depth="3" NCoef="0" IVar="4" Cut="-2.8571429252624512e+00" cType="1" res="-1.4686776325106621e-02" rms="7.3156788945198059e-02" purity="5.6926834583282471e-01" nType="0">
              <Node pos="l" depth="4" NCoef="0" IVar="-1" Cut="0.0000000000000000e+00" cType="1" res="1.1583741009235382e-01" rms="2.0973972976207733e-02" purity="1.0000000000000000e+00" nType="-99"/>
              <Node pos="r" depth="4" NCoef="0" IVar="-1" Cut="0.0000000000000000e+00" cType="1" res="-1.0812412202358246e-01" rms="8.5243538022041321e-02" purity="0.0000000000000000e+00" nType="-99"/>
            </Node>
            <Node pos="r" depth="3" NCoef="0" IVar="5" Cut="1.4096425771713257e+00" cType="1" res="1.4613489620387554e-02" rms="4.1332274675369263e-01" purity="5.2824467420578003e-01" nType="0">
              <Node pos="l" depth="4" NCoef="0" IVar="-1" Cut="0.0000000000000000e+00" cType="1" res="1.6821973025798798e-02" rms="4.0920487046241760e-01" purity="6.2494522333145142e-01" nType="-99"/>
              <Node pos="r" depth="4" NCoef="0" IVar="-1" Cut="0.0000000000000000e+00" cType="1" res="1.9463553326204419e-03" rms="4.1542810201644897e-01" purity="4.6972236037254333e-01" nType="-99"/>
            </Node>
          </Node>
          <Node pos="r" depth="2" NCoef="0" IVar="1" Cut="9.5238095521926880e-01" cType="1" res="-1.6381623223423958e-02" rms="3.8507089018821716e-01" purity="4.5209977030754089e-01" nType="0">
            <Node pos="l" depth="3" NCoef="0" IVar="-1" Cut="0.0000000000000000e+00" cType="1" res="1.1283993721008301e-02" rms="4.1591584682464600e-01" purity="5.0192737579345703e-01" nType="-99"/>
            <Node pos="r" depth="3" NCoef="0" IVar="1" Cut="9.8639678955078125e-01" cType="1" res="-2.3232001811265945e-02" rms="3.7903311848640442e-01" purity="4.4343420863151550e-01" nType="0">
              <Node pos="l" depth="4" NCoef="0" IVar="-1" Cut="0.0000000000000000e+00" cType="1" res="6.9964337162673473e-03" rms="4.0750545263290405e-01" purity="4.2295497655868530e-01" nType="-99"/>
              <Node pos="r" depth="4" NCoef="0" IVar="-1" Cut="0.0000000000000000e+00" cType="1" res="-1.7833238467574120e-02" rms="3.7072017788887024e-01" purity="4.4872811436653137e-01" nType="-99"/>
            </Node>
          </Node>
        </Node>
        <Node pos="r" depth="1" NCoef="0" IVar="0" Cut="3.4347894191741943e+00" cType="1" res="-4.8236444592475891e-02" rms="4.1071400046348572e-01" purity="2.9597085714340210e-01" nType="0">
          <Node pos="l" depth="2" NCoef="0" IVar="-1" Cut="0.0000000000000000e+00" cType="1" res="-3.2798558473587036e-02" rms="3.8745597004890442e-01" purity="2.2327424585819244e-01" nType="-99"/>
          <Node pos="r" depth="2" NCoef="0" IVar="-1" Cut="0.0000000000000000e+00" cType="1" res="-1.2356163933873177e-02" rms="4.3350702524185181e-01" purity="3.7474653124809265e-01" nType="-99"/>
        </Node>
      </Node>
    </BinaryTree>
    <BinaryTree type="DecisionTree" boostWeight="1.0000000000000000e+00" itree="17">
      <Node pos="s" depth="0" NCoef="0" IVar="6" Cut="1.5238095283508301e+01" cType="1" res="-4.2509571649134159e-03" rms="3.5667014122009277e-01" purity="5.0000000000000000e-01" nType="0">
        <Node pos="l" depth="1" NCoef="0" IVar="3" Cut="1.9047619104385376e+00" cType="1" res="-2.2248837631195784e-03" rms="3.5502359271049500e-01" purity="5.0963538885116577e-01" nType="0">
          <Node pos="l" depth="2" NCoef="0" IVar="4" Cut="1.6885784268379211e-01" cType="1" res="-4.9961642362177372e-03" rms="3.5055270791053772e-01" purity="4.8391237854957581e-01" nType="0">
            <Node pos="l" depth="3" NCoef="0" IVar="4" Cut="-2.8491020202636719e+00" cType="1" res="-3.5185955464839935e-02" rms="2.7502343058586121e-01" purity="4.2665565013885498e-01" nType="0">
              <Node pos="l" depth="4" NCoef="0" IVar="-1" Cut="0.0000000000000000e+00" cType="1" res="1.1789323389530182e-01" rms="2.9362209141254425e-02" purity="1.0000000000000000e+00" nType="-99"/>
              <Node pos="r" depth="4" NCoef="0" IVar="-1" Cut="0.0000000000000000e+00" cType="1" res="-4.0946878492832184e-02" rms="3.2768306136131287e-01" purity="1.5933614969253540e-01" nType="-99"/>
            </Node>
            <Node pos="r" depth="3" NCoef="0" IVar="3" Cut="8.3562630414962769e-01" cType="1" res="5.5285885930061340e-02" rms="4.6019488573074341e-01" purity="5.9824103116989136e-01" nType="0">
              <Node pos="l" depth="4" NCoef="0" IVar="-1" Cut="0.0000000000000000e+00" cType="1" res="1.4007311314344406e-02" rms="4.7006863355636597e-01" purity="5.3220474720001221e-01" nType="-99"/>
              <Node pos="r" depth="4" NCoef="0" IVar="-1" Cut="0.0000000000000000e+00" cType="1" res="4.2487386614084244e-02" rms="4.4113686680793762e-01" purity="7.0551717281341553e-01" nType="-99"/>
            </Node>
          </Node>
          <Node pos="r" depth="2" NCoef="0" IVar="2" Cut="2.0746424198150635e+00" cType="1" res="2.6220886036753654e-02" rms="3.9690488576889038e-01" purity="7.7366864681243896e-01" nType="0">
            <Node pos="l" depth="3" NCoef="0" IVar="-1" Cut="0.0000000000000000e+00" cType="1" res="6.1502517201006413e-03" rms="3.7596425414085388e-01" purity="7.8927719593048096e-01" nType="-99"/>
            <Node pos="r" depth="3" NCoef="0" IVar="-1" Cut="0.0000000000000000e+00" cType="1" res="2.2812895476818085e-02" rms="4.1536444425582886e-01" purity="7.5869911909103394e-01" nType="-99"/>
          </Node>
        </Node>
        <Node pos="r" depth="1" NCoef="0" IVar="-1" Cut="0.0000000000000000e+00" cType="1" res="-2.7458796277642250e-02" rms="3.9313882589340210e-01" purity="2.5191587209701538e-01" nType="-99"/>
      </Node>
    </BinaryTree>
    <BinaryTree type="DecisionTree" boostWeight="1.0000000000000000e+00" itree="18">
      <Node pos="s" depth="0" NCoef="0" IVar="2" Cut="1.9759227037429810e+00" cType="1" res="-3.9256392046809196e-03" rms="3.5502788424491882e-01" purity="5.0000000000000000e-01" nType="0">
        <Node pos="l" depth="1" NCoef="0" IVar="6" Cut="3.0476191043853760e+00" cType="1" res="4.8743863590061665e-03" rms="3.3230477571487427e-01" purity="5.3870189189910889e-01" nType="0">
          <Node pos="l" depth="2" NCoef="0" IVar="4" Cut="-2.8571429252624512e+00" cType="1" res="-1.2365177273750305e-02" rms="5.7382445782423019e-02" purity="5.6868040561676025e-01" nType="0">
            <Node pos="l" depth="3" NCoef="0" IVar="2" Cut="3.1711539626121521e-01" cType="1" res="1.5064338222146034e-02" rms="1.5313155949115753e-02" purity="1.0000000000000000e+00" nType="0">
              <Node pos="l" depth="4" NCoef="0" IVar="-1" Cut="0.0000000000000000e+00" cType="1" res="1.1184202879667282e-01" rms="4.5055602095089853e-04" purity="1.0000000000000000e+00" nType="-99"/>
              <Node pos="r" depth="4" NCoef="0" IVar="-1" Cut="0.0000000000000000e+00" cType="1" res="1.1514077335596085e-01" rms="1.8220324069261551e-02" purity="1.0000000000000000e+00" nType="-99"/>
            </Node>
            <Node pos="r" depth="3" NCoef="0" IVar="1" Cut="9.5238095521926880e-01" cType="1" res="-4.8530075699090958e-02" rms="7.0887677371501923e-02" purity="0.0000000000000000e+00" nType="0">
              <Node pos="l" depth="4" NCoef="0" IVar="-1" Cut="0.0000000000000000e+00" cType="1" res="-9.1237120330333710e-02" rms="8.3778016269207001e-03" purity="0.0000000000000000e+00" nType="-99"/>
              <Node pos="r" depth="4" NCoef="0" IVar="-1" Cut="0.0000000000000000e+00" cType="1" res="-1.0870597511529922e-01" rms="8.8061958551406860e-02" purity="0.0000000000000000e+00" nType="-99"/>
            </Node>
          </Node>
          <Node pos="r" depth="2" NCoef="0" IVar="6" Cut="8.0000000000000000e+00" cType="1" res="1.4990205876529217e-02" rms="4.1594904661178589e-01" purity="5.2111113071441650e-01" nType="0">
            <Node pos="l" depth="3" NCoef="0" IVar="2" Cut="1.2650310993194580e+00" cType="1" res="2.3688428103923798e-02" rms="4.0309298038482666e-01" purity="5.4482966661453247e-01" nType="0">
              <Node pos="l" depth="4" NCoef="0" IVar="-1" Cut="0.0000000000000000e+00" cType="1" res="2.0064711570739746e-02" rms="4.0762025117874146e-01" purity="5.3165239095687866e-01" nType="-99"/>
              <Node pos="r" depth="4" NCoef="0" IVar="-1" Cut="0.0000000000000000e+00" cType="1" res="6.3426480628550053e-03" rms="3.9854037761688232e-01" purity="5.5686372518539429e-01" nType="-99"/>
            </Node>
            <Node pos="r" depth="3" NCoef="0" IVar="0" Cut="8.5384216308593750e+00" cType="1" res="-5.2893212996423244e-03" rms="4.4381910562515259e-01" purity="4.6581247448921204e-01" nType="0">
              <Node pos="l" depth="4" NCoef="0" IVar="-1" Cut="0.0000000000000000e+00" cType="1" res="-9.2883305624127388e-03" rms="4.4707444310188293e-01" purity="3.8676899671554565e-01" nType="-99"/>
              <Node pos="r" depth="4" NCoef="0" IVar="-1" Cut="0.0000000000000000e+00" cType="1" res="1.9891208037734032e-02" rms="4.3091785907745361e-01" purity="6.9790899753570557e-01" nType="-99"/>
            </Node>
          </Node>
        </Node>
        <Node pos="r" depth="1" NCoef="0" IVar="1" Cut="9.5238095521926880e-01" cType="1" res="-1.5485167503356934e-02" rms="3.8252496719360352e-01" purity="4.4916200637817383e-01" nType="0">
          <Node pos="l" depth="2" NCoef="0" IVar="6" Cut="8.6666669845581055e+00" cType="1" res="1.8593251705169678e-02" rms="4.1479310393333435e-01" purity="5.0535142421722412e-01" nType="0">
            <Node pos="l" depth="3" NCoef="0" IVar="-1" Cut="0.0000000000000000e+00" cType="1" res="1.9625652581453323e-02" rms="4.0715122222900391e-01" purity="5.4310029745101929e-01" nType="-99"/>
            <Node pos="r" depth="3" NCoef="0" IVar="-1" Cut="0.0000000000000000e+00" cType="1" res="1.0227019665762782e-03" rms="4.2056331038475037e-01" purity="4.7285947203636169e-01" nType="-99"/>
          </Node>
          <Node pos="r" depth="2" NCoef="0" IVar="1" Cut="9.7279363870620728e-01" cType="1" res="-2.1924715489149094e-02" rms="3.7576961517333984e-01" purity="4.3854433298110962e-01" nType="0">
            <Node pos="l" depth="3" NCoef="0" IVar="-1" Cut="0.0000000000000000e+00" cType="1" res="1.2469193898141384e-02" rms="4.1093155741691589e-01" purity="4.3905934691429138e-01" nType="-99"/>
            <Node pos="r" depth="3" NCoef="0" IVar="5" Cut="1.4096425771713257e+00" cType="1" res="-2.6712728664278984e-02" rms="3.7161687016487122e-01" purity="4.3849104642868042e-01" nType="0">
              <Node pos="l" depth="4" NCoef="0" IVar="-1" Cut="0.0000000000000000e+00" cType="1" res="-4.4521824456751347e-03" rms="3.6324301362037659e-01" purity="5.6317359209060669e-01" nType="-99"/>
              <Node pos="r" depth="4" NCoef="0" IVar="-1" Cut="0.0000000000000000e+00" cType="1" res="-1.9849393516778946e-02" rms="3.7533789873123169e-01" purity="3.7659612298011780e-01" nType="-99"/>
            </Node>
          </Node>
        </Node>
      </Node>
    </BinaryTree>
    <BinaryTree type="DecisionTree" boostWeight="1.0000000000000000e+00" itree="19">
      <Node pos="s" depth="0" NCoef="0" IVar="2" Cut="4.2377057075500488e+00" cType="1" res="-3.3736603800207376e-03" rms="3.5442808270454407e-01" purity="5.0000000000000000e-01" nType="0">
        <Node pos="l" depth="1" NCoef="0" IVar="6" Cut="3.0476191043853760e+00" cType="1" res="-7.3684327071532607e-04" rms="3.5186225175857544e-01" purity="5.1572698354721069e-01" nType="0">
          <Node pos="l" depth="2" NCoef="0" IVar="4" Cut="-2.8571429252624512e+00" cType="1" res="-1.2644232250750065e-02" rms="7.6261565089225769e-02" purity="5.7019942998886108e-01" nType="0">
            <Node pos="l" depth="3" NCoef="0" IVar="2" Cut="1.4803383350372314e+00" cType="1" res="1.9881995394825935e-02" rms="3.3227577805519104e-02" purity="1.0000000000000000e+00" nType="0">
              <Node pos="l" depth="4" NCoef="0" IVar="-1" Cut="0.0000000000000000e+00" cType="1" res="1.1337348073720932e-01" rms="1.0748757049441338e-02" purity="1.0000000000000000e+00" nType="-99"/>
              <Node pos="r" depth="4" NCoef="0" IVar="-1" Cut="0.0000000000000000e+00" cType="1" res="1.2497258931398392e-01" rms="5.5030565708875656e-02" purity="1.0000000000000000e+00" nType="-99"/>
            </Node>
            <Node pos="r" depth="3" NCoef="0" IVar="2" Cut="1.2098606824874878e+00" cType="1" res="-5.5795487016439438e-02" rms="9.3814417719841003e-02" purity="0.0000000000000000e+00" nType="0">
              <Node pos="l" depth="4" NCoef="0" IVar="-1" Cut="0.0000000000000000e+00" cType="1" res="-1.0009002685546875e-01" rms="5.0722151994705200e-02" purity="0.0000000000000000e+00" nType="-99"/>
              <Node pos="r" depth="4" NCoef="0" IVar="-1" Cut="0.0000000000000000e+00" cType="1" res="-1.2419123202562332e-01" rms="1.3525278866291046e-01" purity="0.0000000000000000e+00" nType="-99"/>
            </Node>
          </Node>
          <Node pos="r" depth="2" NCoef="0" IVar="5" Cut="1.4096425771713257e+00" cType="1" res="3.6128293722867966e-03" rms="4.0845754742622375e-01" purity="4.9582865834236145e-01" nType="0">
            <Node pos="l" depth="3" NCoef="0" IVar="6" Cut="1.0428571701049805e+01" cType="1" res="1.8527416512370110e-02" rms="4.0634214878082275e-01" purity="6.0227602720260620e-01" nType="0">
              <Node pos="l" depth="4" NCoef="0" IVar="-1" Cut="0.0000000000000000e+00" cType="1" res="1.2343822047114372e-02" rms="4.0083017945289612e-01" purity="6.1948114633560181e-01" nType="-99"/>
              <Node pos="r" depth="4" NCoef="0" IVar="-1" Cut="0.0000000000000000e+00" cType="1" res="-4.9244132824242115e-03" rms="4.4137546420097351e-01" purity="4.8362490534782410e-01" nType="-99"/>
            </Node>
            <Node pos="r" depth="3" NCoef="0" IVar="3" Cut="1.9047619104385376e+00" cType="1" res="-4.2578610591590405e-03" rms="4.0935048460960388e-01" purity="4.3965458869934082e-01" nType="0">
              <Node pos="l" depth="4" NCoef="0" IVar="-1" Cut="0.0000000000000000e+00" cType="1" res="-4.0344819426536560e-03" rms="4.0712860226631165e-01" purity="4.1023725271224976e-01" nType="-99"/>
              <Node pos="r" depth="4" NCoef="0" IVar="-1" Cut="0.0000000000000000e+00" cType="1" res="1.7821550369262695e-02" rms="4.2980232834815979e-01" purity="7.4336552619934082e-01" nType="-99"/>
            </Node>
          </Node>
        </Node>
        <Node pos="r" depth="1" NCoef="0" IVar="6" Cut="1.2000000000000000e+01" cType="1" res="-3.1844969838857651e-02" rms="3.7986996769905090e-01" purity="3.3018589019775391e-01" nType="0">
          <Node pos="l" depth="2" NCoef="0" IVar="0" Cut="4.5921955108642578e+00" cType="1" res="-2.1282643079757690e-02" rms="3.8499495387077332e-01" purity="3.7779626250267029e-01" nType="0">
            <Node pos="l" depth="3" NCoef="0" IVar="-1" Cut="0.0000000000000000e+00" cType="1" res="-2.0643152296543121e-02" rms="3.5888361930847168e-01" purity="3.0368641018867493e-01" nType="-99"/>
            <Node pos="r" depth="3" NCoef="0" IVar="-1" Cut="0.0000000000000000e+00" cType="1" res="-1.7251713434234262e-03" rms="4.1294601559638977e-01" purity="4.6511605381965637e-01" nType="-99"/>
          </Node>
          <Node pos="r" depth="2" NCoef="0" IVar="-1" Cut="0.0000000000000000e+00" cType="1" res="-3.3803004771471024e-02" rms="3.6258378624916077e-01" purity="1.9003620743751526e-01" nType="-99"/>
        </Node>
      </Node>
    </BinaryTree>
    <BinaryTree type="DecisionTree" boostWeight="1.0000000000000000e+00" itree="20">
      <Node pos="s" depth="0" NCoef="0" IVar="2" Cut="1.9759227037429810e+00" cType="1" res="-2.9761742334812880e-03" rms="3.5379073023796082e-01" purity="5.0000000000000000e-01" nType="0">
        <Node pos="l" depth="1" NCoef="0" IVar="6" Cut="3.0476191043853760e+00" cType="1" res="3.6474640946835279e-03" rms="3.3108574151992798e-01" purity="5.3870189189910889e-01" nType="0">
          <Node pos="l" depth="2" NCoef="0" IVar="4" Cut="-2.8571429252624512e+00" cType="1" res="-9.0308850631117821e-03" rms="4.2975150048732758e-02" purity="5.6868040561676025e-01" nType="0">
            <Node pos="l" depth="3" NCoef="0" IVar="2" Cut="3.1711539626121521e-01" cType="1" res="9.6140932291746140e-03" rms="9.9137369543313980e-03" purity="1.0000000000000000e+00" nType="0">
              <Node pos="l" depth="4" NCoef="0" IVar="-1" Cut="0.0000000000000000e+00" cType="1" res="1.1151340603828430e-01" rms="2.8967537218704820e-04" purity="1.0000000000000000e+00" nType="-99"/>
              <Node pos="r" depth="4" NCoef="0" IVar="-1" Cut="0.0000000000000000e+00" cType="1" res="1.1362609267234802e-01" rms="1.1824189685285091e-02" purity="1.0000000000000000e+00" nType="-99"/>
            </Node>
            <Node pos="r" depth="3" NCoef="0" IVar="1" Cut="9.5238095521926880e-01" cType="1" res="-3.3613663166761398e-02" rms="5.5584628134965897e-02" purity="0.0000000000000000e+00" nType="0">
              <Node pos="l" depth="4" NCoef="0" IVar="-1" Cut="0.0000000000000000e+00" cType="1" res="-9.0549111366271973e-02" rms="5.8347950689494610e-03" purity="0.0000000000000000e+00" nType="-99"/>
              <Node pos="r" depth="4" NCoef="0" IVar="-1" Cut="0.0000000000000000e+00" cType="1" res="-1.0472729802131653e-01" rms="7.0090860128402710e-02" purity="0.0000000000000000e+00" nType="-99"/>
            </Node>
          </Node>
          <Node pos="r" depth="2" NCoef="0" IVar="6" Cut="8.0000000000000000e+00" cType="1" res="1.1086857877671719e-02" rms="4.1557893157005310e-01" purity="5.2111113071441650e-01" nType="0">
            <Node pos="l" depth="3" NCoef="0" IVar="2" Cut="1.2650310993194580e+00" cType="1" res="1.7583239823579788e-02" rms="4.0280473232269287e-01" purity="5.4482966661453247e-01" nType="0">
              <Node pos="l" depth="4" NCoef="0" IVar="-1" Cut="0.0000000000000000e+00" cType="1" res="1.5325744636356831e-02" rms="4.0726894140243530e-01" purity="5.3165239095687866e-01" nType="-99"/>
              <Node pos="r" depth="4" NCoef="0" IVar="-1" Cut="0.0000000000000000e+00" cType="1" res="4.3257521465420723e-03" rms="3.9844319224357605e-01" purity="5.5686372518539429e-01" nType="-99"/>
            </Node>
            <Node pos="r" depth="3" NCoef="0" IVar="0" Cut="8.5384216308593750e+00" cType="1" res="-4.0591782890260220e-03" rms="4.4356679916381836e-01" purity="4.6581247448921204e-01" nType="0">
              <Node pos="l" depth="4" NCoef="0" IVar="-1" Cut="0.0000000000000000e+00" cType="1" res="-7.3371753096580505e-03" rms="4.4711604714393616e-01" purity="3.8676899671554565e-01" nType="-99"/>
              <Node pos="r" depth="4" NCoef="0" IVar="-1" Cut="0.0000000000000000e+00" cType="1" res="1.6024069860577583e-02" rms="4.3096518516540527e-01" purity="6.9790899753570557e-01" nType="-99"/>
            </Node>
          </Node>
        </Node>
        <Node pos="r" depth="1" NCoef="0" IVar="1" Cut="9.5238095521926880e-01" cType="1" res="-1.1676846072077751e-02" rms="3.8139331340789795e-01" purity="4.4916200637817383e-01" nType="0">
          <Node pos="l" depth="2" NCoef="0" IVar="2" Cut="2.8369841575622559e+00" cType="1" res="1.5368359163403511e-02" rms="4.1418579220771790e-01" purity="5.0535142421722412e-01" nType="0">
            <Node pos="l" depth="3" NCoef="0" IVar="-1" Cut="0.0000000000000000e+00" cType="1" res="1.4943242073059082e-02" rms="4.1571396589279175e-01" purity="5.5612599849700928e-01" nType="-99"/>
            <Node pos="r" depth="3" NCoef="0" IVar="-1" Cut="0.0000000000000000e+00" cType="1" res="7.4066898378077894e-05" rms="4.1200456023216248e-01" purity="4.5116484165191650e-01" nType="-99"/>
          </Node>
          <Node pos="r" depth="2" NCoef="0" IVar="1" Cut="9.7959518432617188e-01" cType="1" res="-1.6787379980087280e-02" rms="3.7465542554855347e-01" purity="4.3854433298110962e-01" nType="0">
            <Node pos="l" depth="3" NCoef="0" IVar="-1" Cut="0.0000000000000000e+00" cType="1" res="7.1641318500041962e-03" rms="4.0701216459274292e-01" purity="4.2331302165985107e-01" nType="-99"/>
            <Node pos="r" depth="3" NCoef="0" IVar="0" Cut="4.7862954139709473e+00" cType="1" res="-2.1739473566412926e-02" rms="3.6890709400177002e-01" purity="4.4101244211196899e-01" nType="0">
              <Node pos="l" depth="4" NCoef="0" IVar="-1" Cut="0.0000000000000000e+00" cType="1" res="-1.8847789615392685e-02" rms="3.7614792585372925e-01" purity="3.0071249604225159e-01" nType="-99"/>
              <Node pos="r" depth="4" NCoef="0" IVar="-1" Cut="0.0000000000000000e+00" cType="1" res="-5.6941248476505280e-03" rms="3.6134561896324158e-01" purity="5.7659757137298584e-01" nType="-99"/>
            </Node>
          </Node>
        </Node>
      </Node>
    </BinaryTree>
    <BinaryTree type="DecisionTree" boostWeight="1.0000000000000000e+00" itree="21">
      <Node pos="s" depth="0" NCoef="0" IVar="6" Cut="1.6761905670166016e+01" cType="1" res="-2.5535258464515209e-03" rms="3.5343649983406067e-01" purity="5.0000000000000000e-01" nType="0">
        <Node pos="l" depth="1" NCoef="0" IVar="3" Cut="1.9047619104385376e+00" cType="1" res="-1.3964438112452626e-03" rms="3.5242596268653870e-01" purity="5.0725674629211426e-01" nType="0">
          <Node pos="l" depth="2" NCoef="0" IVar="4" Cut="1.6885784268379211e-01" cType="1" res="-3.2502023968845606e-03" rms="3.4835979342460632e-01" purity="4.8149588704109192e-01" nType="0">
            <Node pos="l" depth="3" NCoef="0" IVar="4" Cut="-2.8491020202636719e+00" cType="1" res="-2.7174381539225578e-02" rms="2.7256852388381958e-01" purity="4.2493048310279846e-01" nType="0">
              <Node pos="l" depth="4" NCoef="0" IVar="-1" Cut="0.0000000000000000e+00" cType="1" res="1.1717574298381805e-01" rms="2.6261659339070320e-02" purity="1.0000000000000000e+00" nType="-99"/>
              <Node pos="r" depth="4" NCoef="0" IVar="-1" Cut="0.0000000000000000e+00" cType="1" res="-3.2926689833402634e-02" rms="3.2662734389305115e-01" purity="1.5895052254199982e-01" nType="-99"/>
            </Node>
            <Node pos="r" depth="3" NCoef="0" IVar="3" Cut="1.1028544902801514e+00" cType="1" res="4.3667268007993698e-02" rms="4.5860832929611206e-01" purity="5.9242564439773560e-01" nType="0">
              <Node pos="l" depth="4" NCoef="0" IVar="-1" Cut="0.0000000000000000e+00" cType="1" res="1.3728016987442970e-02" rms="4.6479243040084839e-01" purity="5.5498480796813965e-01" nType="-99"/>
              <Node pos="r" depth="4" NCoef="0" IVar="-1" Cut="0.0000000000000000e+00" cType="1" res="4.1606064885854721e-02" rms="4.3370223045349121e-01" purity="7.2176754474639893e-01" nType="-99"/>
            </Node>
          </Node>
          <Node pos="r" depth="2" NCoef="0" IVar="2" Cut="2.6604652404785156e+00" cType="1" res="1.7717232927680016e-02" rms="3.9138737320899963e-01" purity="7.7287095785140991e-01" nType="0">
            <Node pos="l" depth="3" NCoef="0" IVar="2" Cut="1.6561472415924072e+00" cType="1" res="5.7664350606501102e-03" rms="3.7533116340637207e-01" purity="7.8596389293670654e-01" nType="0">
              <Node pos="l" depth="4" NCoef="0" IVar="-1" Cut="0.0000000000000000e+00" cType="1" res="-2.4140898603945971e-03" rms="3.5881263017654419e-01" purity="7.9312324523925781e-01" nType="-99"/>
              <Node pos="r" depth="4" NCoef="0" IVar="-1" Cut="0.0000000000000000e+00" cType="1" res="8.6233895272016525e-03" rms="3.8917163014411926e-01" purity="7.7963584661483765e-01" nType="-99"/>
            </Node>
            <Node pos="r" depth="3" NCoef="0" IVar="-1" Cut="0.0000000000000000e+00" cType="1" res="2.2529318928718567e-02" rms="4.2219167947769165e-01" purity="7.4521821737289429e-01" nType="-99"/>
          </Node>
        </Node>
        <Node pos="r" depth="1" NCoef="0" IVar="-1" Cut="0.0000000000000000e+00" cType="1" res="-2.3121276870369911e-02" rms="3.8622710108757019e-01" purity="2.3452317714691162e-01" nType="-99"/>
      </Node>
    </BinaryTree>
    <BinaryTree type="DecisionTree" boostWeight="1.0000000000000000e+00" itree="22">
      <Node pos="s" depth="0" NCoef="0" IVar="6" Cut="1.0666666984558105e+01" cType="1" res="-2.4100192822515965e-03" rms="3.5244682431221008e-01" purity="5.0000000000000000e-01" nType="0">
        <Node pos="l" depth="1" NCoef="0" IVar="6" Cut="3.3333332538604736e+00" cType="1" res="7.7643775148317218e-04" rms="3.3618146181106567e-01" purity="5.2878093719482422e-01" nType="0">
          <Node pos="l" depth="2" NCoef="0" IVar="4" Cut="-2.8571429252624512e+00" cType="1" res="-1.0285255499184132e-02" rms="6.8591341376304626e-02" purity="5.6921917200088501e-01" nType="0">
            <Node pos="l" depth="3" NCoef="0" IVar="2" Cut="1.5222480297088623e+00" cType="1" res="1.4769227243959904e-02" rms="3.3722091466188431e-02" purity="1.0000000000000000e+00" nType="0">
              <Node pos="l" depth="4" NCoef="0" IVar="-1" Cut="0.0000000000000000e+00" cType="1" res="1.1262787133455276e-01" rms="7.3627559468150139e-03" purity="1.0000000000000000e+00" nType="-99"/>
              <Node pos="r" depth="4" NCoef="0" IVar="-1" Cut="0.0000000000000000e+00" cType="1" res="1.2672701478004456e-01" rms="5.7789925485849380e-02" purity="1.0000000000000000e+00" nType="-99"/>
            </Node>
            <Node pos="r" depth="3" NCoef="0" IVar="2" Cut="1.2326154708862305e+00" cType="1" res="-4.3391395360231400e-02" rms="8.6564391851425171e-02" purity="0.0000000000000000e+00" nType="0">
              <Node pos="l" depth="4" NCoef="0" IVar="-1" Cut="0.0000000000000000e+00" cType="1" res="-9.8206818103790283e-02" rms="3.9808090776205063e-02" purity="0.0000000000000000e+00" nType="-99"/>
              <Node pos="r" depth="4" NCoef="0" IVar="-1" Cut="0.0000000000000000e+00" cType="1" res="-1.2364155799150467e-01" rms="1.2819576263427734e-01" purity="0.0000000000000000e+00" nType="-99"/>
            </Node>
          </Node>
          <Node pos="r" depth="2" NCoef="0" IVar="2" Cut="1.5234911441802979e+00" cType="1" res="5.5965450592339039e-03" rms="4.0017327666282654e-01" purity="5.1116013526916504e-01" nType="0">
            <Node pos="l" depth="3" NCoef="0" IVar="6" Cut="7.1428570747375488e+00" cType="1" res="1.8465764820575714e-02" rms="4.1206297278404236e-01" purity="5.3351187705993652e-01" nType="0">
              <Node pos="l" depth="4" NCoef="0" IVar="-1" Cut="0.0000000000000000e+00" cType="1" res="1.5089767985045910e-02" rms="4.0156525373458862e-01" purity="5.4425799846649170e-01" nType="-99"/>
